{"learner":{"attributes":{"scikit_learn":"{\"_estimator_type\": \"regressor\"}"},"feature_names":[],"feature_types":[],"gradient_booster":{"model":{"gbtree_model_param":{"num_parallel_tree":"1","num_trees":"100"},"iteration_indptr":[0,1,2,3,4,5,6,7,8,9,10,11,12,13,14,15,16,17,18,19,20,21,22,23,24,25,26,27,28,29,30,31,32,33,34,35,36,37,38,39,40,41,42,43,44,45,46,47,48,49,50,51,52,53,54,55,56,57,58,59,60,61,62,63,64,65,66,67,68,69,70,71,72,73,74,75,76,77,78,79,80,81,82,83,84,85,86,87,88,89,90,91,92,93,94,95,96,97,98,99,100],"tree_info":[0,0,0,0,0,0,0,0,0,0,0,0,0,0,0,0,0,0,0,0,0,0,0,0,0,0,0,0,0,0,0,0,0,0,0,0,0,0,0,0,0,0,0,0,0,0,0,0,0,0,0,0,0,0,0,0,0,0,0,0,0,0,0,0,0,0,0,0,0,0,0,0,0,0,0,0,0,0,0,0,0,0,0,0,0,0,0,0,0,0,0,0,0,0,0,0,0,0,0,0],"trees":[{"base_weights":[-2.2328347E-6,-3.8356225E0,6.3522015E0,-7.541959E0,-6.873807E-1,4.202696E0,8.686868E0,-9.311779E-1,-5.3294224E-1,-3.8368222E-1,2.1120048E-1,1.8016014E-1,5.967668E-1,4.1238743E-1,9.3435496E-1],"categories":[],"categories_nodes":[],"categories_segments":[],"categories_sizes":[],"default_left":[0,0,0,0,0,0,0,0,0,0,0,0,0,0,0],"id":0,"left_children":[1,3,5,7,9,11,13,-1,-1,-1,-1,-1,-1,-1,-1],"loss_changes":[1.4302045E4,4.2654673E3,1.0725527E3,6.082256E2,1.7625869E3,4.850791E2,2.7609424E2,0E0,0E0,0E0,0E0,0E0,0E0,0E0,0E0],"parents":[2147483647,0,0,1,1,2,2,3,3,4,4,5,5,6,6],"right_children":[2,4,6,8,10,12,14,-1,-1,-1,-1,-1,-1,-1,-1],"split_conditions":[2.5744888E1,2.2810125E1,1E0,1E0,1E0,2.7519676E1,2E0,-9.311779E-1,-5.3294224E-1,-3.8368222E-1,2.1120048E-1,1.8016014E-1,5.967668E-1,4.1238743E-1,9.3435496E-1],"split_indices":[9,9,0,0,0,9,12,0,0,0,0,0,0,0,0],"split_type":[0,0,0,0,0,0,0,0,0,0,0,0,0,0,0],"sum_hessian":[5.85E2,3.65E2,2.2E2,1.67E2,1.98E2,1.16E2,1.04E2,9.1E1,7.6E1,9.3E1,1.05E2,5E1,6.6E1,1.4E1,9E1],"tree_param":{"num_deleted":"0","num_feature":"22","num_nodes":"15","size_leaf_vector":"1"}},{"base_weights":[8.2974875E-4,-3.4565313E0,5.726591E0,-6.7964787E0,-6.1950743E-1,3.7890682E0,7.8310065E0,-7.807908E-1,-3.1308547E-1,-3.4572217E-1,1.9028004E-1,1.6249734E-1,5.3798115E-1,3.7389827E-1,8.4194607E-1],"categories":[],"categories_nodes":[],"categories_segments":[],"categories_sizes":[],"default_left":[0,0,0,0,0,0,0,0,0,0,0,0,0,0,0],"id":1,"left_children":[1,3,5,7,9,11,13,-1,-1,-1,-1,-1,-1,-1,-1],"loss_changes":[1.1620264E4,3.4638267E3,8.7142285E2,5.9841846E2,1.4309384E3,3.940326E2,2.2135645E2,0E0,0E0,0E0,0E0,0E0,0E0,0E0,0E0],"parents":[2147483647,0,0,1,1,2,2,3,3,4,4,5,5,6,6],"right_children":[2,4,6,8,10,12,14,-1,-1,-1,-1,-1,-1,-1,-1],"split_conditions":[2.5744888E1,2.2810125E1,1E0,8E0,1E0,2.7519676E1,2E0,-7.807908E-1,-3.1308547E-1,-3.4572217E-1,1.9028004E-1,1.6249734E-1,5.3798115E-1,3.7389827E-1,8.4194607E-1],"split_indices":[9,9,0,12,0,9,12,0,0,0,0,0,0,0,0],"split_type":[0,0,0,0,0,0,0,0,0,0,0,0,0,0,0],"sum_hessian":[5.85E2,3.65E2,2.2E2,1.67E2,1.98E2,1.16E2,1.04E2,1.3E2,3.7E1,9.3E1,1.05E2,5E1,6.6E1,1.4E1,9E1],"tree_param":{"num_deleted":"0","num_feature":"22","num_nodes":"15","size_leaf_vector":"1"}},{"base_weights":[1.8849096E-3,-3.114291E0,5.162602E0,-6.8944855E0,-1.0027664E0,3.4161491E0,7.059482E0,-8.444312E-1,-4.9197862E-1,-3.4738654E-1,1.2956731E-1,1.4656612E-1,4.8498616E-1,4.82289E-1,8.156503E-1],"categories":[],"categories_nodes":[],"categories_segments":[],"categories_sizes":[],"default_left":[0,0,0,0,0,0,0,0,0,0,0,0,0,0,0],"id":2,"left_children":[1,3,5,7,9,11,13,-1,-1,-1,-1,-1,-1,-1,-1],"loss_changes":[9.439955E3,2.9144893E3,7.080156E2,3.5937305E2,1.3449033E3,3.2007507E2,2.1828857E2,0E0,0E0,0E0,0E0,0E0,0E0,0E0,0E0],"parents":[2147483647,0,0,1,1,2,2,3,3,4,4,5,5,6,6],"right_children":[2,4,6,8,10,12,14,-1,-1,-1,-1,-1,-1,-1,-1],"split_conditions":[2.5744888E1,2.2231707E1,1E0,1E0,1E0,2.7519676E1,2.7319954E1,-8.444312E-1,-4.9197862E-1,-3.4738654E-1,1.2956731E-1,1.4656612E-1,4.8498616E-1,4.82289E-1,8.156503E-1],"split_indices":[9,9,0,0,0,9,9,0,0,0,0,0,0,0,0],"split_type":[0,0,0,0,0,0,0,0,0,0,0,0,0,0,0],"sum_hessian":[5.85E2,3.65E2,2.2E2,1.3E2,2.35E2,1.16E2,1.04E2,7.1E1,5.9E1,1.13E2,1.22E2,5E1,6.6E1,3.6E1,6.8E1],"tree_param":{"num_deleted":"0","num_feature":"22","num_nodes":"15","size_leaf_vector":"1"}},{"base_weights":[2.336411E-3,-5.2951694E0,2.4983985E0,-6.776037E0,-3.4209878E0,1.9945168E-1,5.2383547E0,-7.4672073E-1,-2.536746E-2,-7.4473256E-1,-2.2281313E-1,-2.2506092E-1,1.8127535E-1,3.699194E-1,6.770617E-1],"categories":[],"categories_nodes":[],"categories_segments":[],"categories_sizes":[],"default_left":[0,0,0,0,0,0,0,0,0,0,0,0,0,0,0],"id":3,"left_children":[1,3,5,7,9,11,13,-1,-1,-1,-1,-1,-1,-1,-1],"loss_changes":[7.761851E3,4.9859717E2,2.5122615E3,4.6694385E2,3.9164813E2,8.657657E2,4.0418262E2,0E0,0E0,0E0,0E0,0E0,0E0,0E0,0E0],"parents":[2147483647,0,0,1,1,2,2,3,3,4,4,5,5,6,6],"right_children":[2,4,6,8,10,12,14,-1,-1,-1,-1,-1,-1,-1,-1],"split_conditions":[2.315919E1,1E0,2.6593403E1,9E0,2.0714708E1,4E0,1E0,-7.4672073E-1,-2.536746E-2,-7.4473256E-1,-2.2281313E-1,-2.2506092E-1,1.8127535E-1,3.699194E-1,6.770617E-1],"split_indices":[9,0,9,12,9,12,0,0,0,0,0,0,0,0,0],"split_type":[0,0,0,0,0,0,0,0,0,0,0,0,0,0,0],"sum_hessian":[5.85E2,1.87E2,3.98E2,1.03E2,8.4E1,2.17E2,1.81E2,9.3E1,1E1,1.8E1,6.6E1,8.6E1,1.31E2,9.2E1,8.9E1],"tree_param":{"num_deleted":"0","num_feature":"22","num_nodes":"15","size_leaf_vector":"1"}},{"base_weights":[8.4620534E-4,-3.2704875E0,3.3057866E0,-5.677007E0,-1.3400358E0,1.5394275E0,5.3485937E0,-7.135404E-1,-3.989604E-1,-2.6686367E-1,9.101988E-2,-4.1949034E-2,3.454616E-1,1.1569066E-1,5.8240217E-1],"categories":[],"categories_nodes":[],"categories_segments":[],"categories_sizes":[],"default_left":[0,0,0,0,0,0,0,0,0,0,0,0,0,0,0],"id":4,"left_children":[1,3,5,7,9,11,13,-1,-1,-1,-1,-1,-1,-1,-1],"loss_changes":[6.346387E3,1.3628652E3,1.0453992E3,2.9391113E2,4.957235E2,5.942173E2,2.6229614E2,0E0,0E0,0E0,0E0,0E0,0E0,0E0,0E0],"parents":[2147483647,0,0,1,1,2,2,3,3,4,4,5,5,6,6],"right_children":[2,4,6,8,10,12,14,-1,-1,-1,-1,-1,-1,-1,-1],"split_conditions":[2.474086E1,2.2231707E1,2.7418697E1,1E0,7E0,1E0,1E0,-7.135404E-1,-3.989604E-1,-2.6686367E-1,9.101988E-2,-4.1949034E-2,3.454616E-1,1.1569066E-1,5.8240217E-1],"split_indices":[9,9,9,1,12,0,12,0,0,0,0,0,0,0,0],"split_type":[0,0,0,0,0,0,0,0,0,0,0,0,0,0,0],"sum_hessian":[5.85E2,2.94E2,2.91E2,1.3E2,1.64E2,1.57E2,1.34E2,6.8E1,6.2E1,1.03E2,6.1E1,7.8E1,7.9E1,1.4E1,1.2E2],"tree_param":{"num_deleted":"0","num_feature":"22","num_nodes":"15","size_leaf_vector":"1"}},{"base_weights":[2.71501E-4,-4.3519235E0,2.050929E0,-5.477281E0,-2.3317091E0,1.7283714E-1,4.289243E0,-7.205357E-1,-3.5685018E-1,-4.0679127E-1,-6.271916E-2,-1.6300921E-1,1.862551E-1,1.3989401E-1,4.9199888E-1],"categories":[],"categories_nodes":[],"categories_segments":[],"categories_sizes":[],"default_left":[0,0,0,0,0,0,0,0,0,0,0,0,0,0,0],"id":5,"left_children":[1,3,5,7,9,11,13,-1,-1,-1,-1,-1,-1,-1,-1],"loss_changes":[5.238895E3,4.1463965E2,1.6765586E3,3.7010938E2,2.0164651E2,6.671589E2,3.2491138E2,0E0,0E0,0E0,0E0,0E0,0E0,0E0,0E0],"parents":[2147483647,0,0,1,1,2,2,3,3,4,4,5,5,6,6],"right_children":[2,4,6,8,10,12,14,-1,-1,-1,-1,-1,-1,-1,-1],"split_conditions":[2.315919E1,7E0,2.6593403E1,1E0,2.1853117E1,1E0,2E0,-7.205357E-1,-3.5685018E-1,-4.0679127E-1,-6.271916E-2,-1.6300921E-1,1.862551E-1,1.3989401E-1,4.9199888E-1],"split_indices":[9,12,9,0,9,0,12,0,0,0,0,0,0,0,0],"split_type":[0,0,0,0,0,0,0,0,0,0,0,0,0,0,0],"sum_hessian":[5.85E2,1.87E2,3.98E2,1.19E2,6.8E1,2.17E2,1.81E2,6.1E1,5.8E1,3.3E1,3.5E1,1.05E2,1.12E2,3.3E1,1.48E2],"tree_param":{"num_deleted":"0","num_feature":"22","num_nodes":"15","size_leaf_vector":"1"}},{"base_weights":[-1.2769277E-3,-2.1116922E0,3.4938056E0,-4.654166E0,-6.9145596E-1,2.1935678E0,4.909368E0,-5.1077235E-1,-1.4436135E-2,-2.569977E-1,1.055234E-1,2.7644953E-1,-1.3274466E-1,4.377524E-1,9.056263E-1],"categories":[],"categories_nodes":[],"categories_segments":[],"categories_sizes":[],"default_left":[0,0,0,0,0,0,0,0,0,0,0,0,0,0,0],"id":6,"left_children":[1,3,5,7,9,11,13,-1,-1,-1,-1,-1,-1,-1,-1],"loss_changes":[4.3297583E3,1.3183761E3,3.9599683E2,2.672173E2,7.7707367E2,2.3886816E2,1.919336E2,0E0,0E0,0E0,0E0,0E0,0E0,0E0,0E0],"parents":[2147483647,0,0,1,1,2,2,3,3,4,4,5,5,6,6],"right_children":[2,4,6,8,10,12,14,-1,-1,-1,-1,-1,-1,-1,-1],"split_conditions":[2.5744888E1,2.2231707E1,1E0,9E0,1E0,8.469318E1,2.9720491E1,-5.1077235E-1,-1.4436135E-2,-2.569977E-1,1.055234E-1,2.7644953E-1,-1.3274466E-1,4.377524E-1,9.056263E-1],"split_indices":[9,9,0,12,0,19,9,0,0,0,0,0,0,0,0],"split_type":[0,0,0,0,0,0,0,0,0,0,0,0,0,0,0],"sum_hessian":[5.85E2,3.65E2,2.2E2,1.3E2,2.35E2,1.16E2,1.04E2,1.18E2,1.2E1,1.13E2,1.22E2,1E2,1.6E1,9.4E1,1E1],"tree_param":{"num_deleted":"0","num_feature":"22","num_nodes":"15","size_leaf_vector":"1"}},{"base_weights":[2.335493E-4,-2.5876055E0,2.3444116E0,-4.677316E0,-1.4658046E0,9.7082007E-1,3.9644043E0,-6.221704E-1,-3.1011575E-1,-2.7394673E-1,5.35807E-2,-7.15337E-2,2.6257187E-1,1.0789605E-1,4.5470682E-1],"categories":[],"categories_nodes":[],"categories_segments":[],"categories_sizes":[],"default_left":[0,0,0,0,0,0,0,0,0,0,0,0,0,0,0],"id":7,"left_children":[1,3,5,7,9,11,13,-1,-1,-1,-1,-1,-1,-1,-1],"loss_changes":[3.5609507E3,6.4718677E2,6.815154E2,2.16823E2,4.6800406E2,4.7066864E2,2.3214941E2,0E0,0E0,0E0,0E0,0E0,0E0,0E0,0E0],"parents":[2147483647,0,0,1,1,2,2,3,3,4,4,5,5,6,6],"right_children":[2,4,6,8,10,12,14,-1,-1,-1,-1,-1,-1,-1,-1],"split_conditions":[2.453216E1,2.1762518E1,2.733662E1,7.6222664E1,7E0,1E0,7.5757225E1,-6.221704E-1,-3.1011575E-1,-2.7394673E-1,5.35807E-2,-7.15337E-2,2.6257187E-1,1.0789605E-1,4.5470682E-1],"split_indices":[9,9,9,21,12,0,21,0,0,0,0,0,0,0,0],"split_type":[0,0,0,0,0,0,0,0,0,0,0,0,0,0,0],"sum_hessian":[5.85E2,2.78E2,3.07E2,9.6E1,1.82E2,1.67E2,1.4E2,4.7E1,4.9E1,1.11E2,7.1E1,8.3E1,8.4E1,2.4E1,1.16E2],"tree_param":{"num_deleted":"0","num_feature":"22","num_nodes":"15","size_leaf_vector":"1"}},{"base_weights":[-4.705162E-4,-3.2727075E0,1.5413365E0,-4.490596E0,-1.744083E0,1.6562687E-1,3.1806958E0,-5.3924245E-1,-1.4251184E-1,-4.9764213E-1,-8.014187E-2,-1.8062966E-1,1.464049E-1,6.2979355E-2,3.741434E-1],"categories":[],"categories_nodes":[],"categories_segments":[],"categories_sizes":[],"default_left":[0,0,0,0,0,0,0,0,0,0,0,0,0,0,0],"id":8,"left_children":[1,3,5,7,9,11,13,-1,-1,-1,-1,-1,-1,-1,-1],"loss_changes":[2.9615068E3,3.421665E2,8.993309E2,2.798269E2,2.5500763E2,5.608093E2,2.5797437E2,0E0,0E0,0E0,0E0,0E0,0E0,0E0,0E0],"parents":[2147483647,0,0,1,1,2,2,3,3,4,4,5,5,6,6],"right_children":[2,4,6,8,10,12,14,-1,-1,-1,-1,-1,-1,-1,-1],"split_conditions":[2.315919E1,1E0,2.6593403E1,8E0,2.0714708E1,4E0,2E0,-5.3924245E-1,-1.4251184E-1,-4.9764213E-1,-8.014187E-2,-1.8062966E-1,1.464049E-1,6.2979355E-2,3.741434E-1],"split_indices":[9,0,9,12,9,12,12,0,0,0,0,0,0,0,0],"split_type":[0,0,0,0,0,0,0,0,0,0,0,0,0,0,0],"sum_hessian":[5.85E2,1.87E2,3.98E2,1.03E2,8.4E1,2.17E2,1.81E2,7.9E1,2.4E1,1.8E1,6.6E1,8.6E1,1.31E2,3.3E1,1.48E2],"tree_param":{"num_deleted":"0","num_feature":"22","num_nodes":"15","size_leaf_vector":"1"}},{"base_weights":[-1.887149E-3,-2.9521363E0,1.3882099E0,-4.0480895E0,-1.5764742E0,3.6622074E-1,3.2556353E0,-4.5432335E-1,5.511461E-2,-4.5049706E-1,-7.2247565E-2,-1.4693032E-1,1.4926223E-1,1.7815143E-1,4.3573838E-1],"categories":[],"categories_nodes":[],"categories_segments":[],"categories_sizes":[],"default_left":[0,0,0,0,0,0,0,0,0,0,0,0,0,0,0],"id":9,"left_children":[1,3,5,7,9,11,13,-1,-1,-1,-1,-1,-1,-1,-1],"loss_changes":[2.407362E3,2.770586E2,7.6029456E2,2.3934131E2,2.0932443E2,5.376853E2,2.2123682E2,0E0,0E0,0E0,0E0,0E0,0E0,0E0,0E0],"parents":[2147483647,0,0,1,1,2,2,3,3,4,4,5,5,6,6],"right_children":[2,4,6,8,10,12,14,-1,-1,-1,-1,-1,-1,-1,-1],"split_conditions":[2.315919E1,1E0,2.733662E1,9E0,2.0714708E1,4E0,7.58144E1,-4.5432335E-1,5.511461E-2,-4.5049706E-1,-7.2247565E-2,-1.4693032E-1,1.4926223E-1,1.7815143E-1,4.3573838E-1],"split_indices":[9,0,9,12,9,12,20,0,0,0,0,0,0,0,0],"split_type":[0,0,0,0,0,0,0,0,0,0,0,0,0,0,0],"sum_hessian":[5.85E2,1.87E2,3.98E2,1.03E2,8.4E1,2.58E2,1.4E2,9.3E1,1E1,1.8E1,6.6E1,9.8E1,1.6E2,6.1E1,7.9E1],"tree_param":{"num_deleted":"0","num_feature":"22","num_nodes":"15","size_leaf_vector":"1"}},{"base_weights":[-2.2203557E-3,-1.4330642E0,2.3674223E0,-2.8241024E0,-1.1222756E-2,1.2776417E0,3.559203E0,-3.542506E-1,-2.1452658E-2,-1.337862E-1,1.5524499E-1,1.958215E-1,-9.5554516E-2,3.0902958E-1,7.2852904E-1],"categories":[],"categories_nodes":[],"categories_segments":[],"categories_sizes":[],"default_left":[0,0,0,0,0,0,0,0,0,0,0,0,0,0,0],"id":10,"left_children":[1,3,5,7,9,11,13,-1,-1,-1,-1,-1,-1,-1,-1],"loss_changes":[1.9902777E3,7.238562E2,2.824829E2,3.4606494E2,3.7962314E2,1.7969327E2,1.6094104E2,0E0,0E0,0E0,0E0,0E0,0E0,0E0,0E0],"parents":[2147483647,0,0,1,1,2,2,3,3,4,4,5,5,6,6],"right_children":[2,4,6,8,10,12,14,-1,-1,-1,-1,-1,-1,-1,-1],"split_conditions":[2.5744888E1,1E0,1E0,8E0,2.3708672E1,8.15468E1,2.9720491E1,-3.542506E-1,-2.1452658E-2,-1.337862E-1,1.5524499E-1,1.958215E-1,-9.5554516E-2,3.0902958E-1,7.2852904E-1],"split_indices":[9,0,0,12,9,19,9,0,0,0,0,0,0,0,0],"split_type":[0,0,0,0,0,0,0,0,0,0,0,0,0,0,0],"sum_hessian":[5.85E2,3.65E2,2.2E2,1.84E2,1.81E2,1.16E2,1.04E2,1.44E2,4E1,9.8E1,8.3E1,8.9E1,2.7E1,9.4E1,1E1],"tree_param":{"num_deleted":"0","num_feature":"22","num_nodes":"15","size_leaf_vector":"1"}},{"base_weights":[-6.6096464E-4,-2.4504492E0,1.1536269E0,-3.8202085E0,-1.4004403E0,3.3964324E-1,2.7429013E0,-5.31183E-1,-1.9925356E-1,-3.5955882E-1,-4.6998356E-2,-1.1887381E-1,1.288151E-1,-1.4397583E-2,3.216993E-1],"categories":[],"categories_nodes":[],"categories_segments":[],"categories_sizes":[],"default_left":[0,0,0,0,0,0,0,0,0,0,0,0,0,0,0],"id":11,"left_children":[1,3,5,7,9,11,13,-1,-1,-1,-1,-1,-1,-1,-1],"loss_changes":[1.6598947E3,2.6504285E2,5.152322E2,2.1023792E2,2.188991E2,3.8569684E2,1.8523016E2,0E0,0E0,0E0,0E0,0E0,0E0,0E0,0E0],"parents":[2147483647,0,0,1,1,2,2,3,3,4,4,5,5,6,6],"right_children":[2,4,6,8,10,12,14,-1,-1,-1,-1,-1,-1,-1,-1],"split_conditions":[2.315919E1,7.628198E1,2.7418697E1,1E0,1.3171614E3,4E0,7.5558014E1,-5.31183E-1,-1.9925356E-1,-3.5955882E-1,-4.6998356E-2,-1.1887381E-1,1.288151E-1,-1.4397583E-2,3.216993E-1],"split_indices":[9,21,9,1,11,12,21,0,0,0,0,0,0,0,0],"split_type":[0,0,0,0,0,0,0,0,0,0,0,0,0,0,0],"sum_hessian":[5.85E2,1.87E2,3.98E2,8E1,1.07E2,2.64E2,1.34E2,4.3E1,3.7E1,3.1E1,7.6E1,1.01E2,1.63E2,1.9E1,1.15E2],"tree_param":{"num_deleted":"0","num_feature":"22","num_nodes":"15","size_leaf_vector":"1"}},{"base_weights":[-1.994182E-3,-1.6108868E0,1.4554182E0,-2.4597805E0,-9.046252E-2,2.5881985E-1,2.6818035E0,-7.3393506E-1,-2.1582775E-1,3.0822697E-1,-8.156607E-2,-1.1390213E-1,1.7259149E-1,3.2471335E-1,6.222916E-3],"categories":[],"categories_nodes":[],"categories_segments":[],"categories_sizes":[],"default_left":[0,0,0,0,0,0,0,0,0,0,0,0,0,0,0],"id":12,"left_children":[1,3,5,7,9,11,13,-1,-1,-1,-1,-1,-1,-1,-1],"loss_changes":[1.376409E3,3.5987683E2,4.512929E2,2.4750513E2,2.3490094E2,3.2393607E2,2.2489844E2,0E0,0E0,0E0,0E0,0E0,0E0,0E0,0E0],"parents":[2147483647,0,0,1,1,2,2,3,3,4,4,5,5,6,6],"right_children":[2,4,6,8,10,12,14,-1,-1,-1,-1,-1,-1,-1,-1],"split_conditions":[2.453216E1,7E0,1E0,2.026764E1,3.8216106E1,5E0,5.303416E1,-7.3393506E-1,-2.1582775E-1,3.0822697E-1,-8.156607E-2,-1.1390213E-1,1.7259149E-1,3.2471335E-1,6.222916E-3],"split_indices":[9,12,0,9,10,12,10,0,0,0,0,0,0,0,0],"split_type":[0,0,0,0,0,0,0,0,0,0,0,0,0,0,0],"sum_hessian":[5.85E2,2.78E2,3.07E2,1.78E2,1E2,1.56E2,1.51E2,9E0,1.69E2,1.8E1,8.2E1,8E1,7.6E1,1.24E2,2.7E1],"tree_param":{"num_deleted":"0","num_feature":"22","num_nodes":"15","size_leaf_vector":"1"}},{"base_weights":[-2.3647542E-3,-2.0433395E0,9.593035E-1,-3.07045E0,-9.1476643E-1,3.3170748E-1,2.525384E0,-4.9048287E-1,-2.0192985E-1,-1.8795872E-1,6.8264924E-2,-3.2585752E-1,6.432408E-2,-1.9946834E-2,3.1072617E-1],"categories":[],"categories_nodes":[],"categories_segments":[],"categories_sizes":[],"default_left":[0,0,0,0,0,0,0,0,0,0,0,0,0,0,0],"id":13,"left_children":[1,3,5,7,9,11,13,-1,-1,-1,-1,-1,-1,-1,-1],"loss_changes":[1.1521262E3,2.1511511E2,3.9132584E2,1.7906024E2,1.415341E2,3.2198495E2,1.8137024E2,0E0,0E0,0E0,0E0,0E0,0E0,0E0,0E0],"parents":[2147483647,0,0,1,1,2,2,3,3,4,4,5,5,6,6],"right_children":[2,4,6,8,10,12,14,-1,-1,-1,-1,-1,-1,-1,-1],"split_conditions":[2.315919E1,1E0,2.7909832E1,4E0,1E0,7.418581E1,2E0,-4.9048287E-1,-2.0192985E-1,-1.8795872E-1,6.8264924E-2,-3.2585752E-1,6.432408E-2,-1.9946834E-2,3.1072617E-1],"split_indices":[9,1,9,12,0,21,12,0,0,0,0,0,0,0,0],"split_type":[0,0,0,0,0,0,0,0,0,0,0,0,0,0,0],"sum_hessian":[5.85E2,1.87E2,3.98E2,9.7E1,9E1,2.85E2,1.13E2,3.4E1,6.3E1,5.6E1,3.4E1,2.2E1,2.63E2,2E1,9.3E1],"tree_param":{"num_deleted":"0","num_feature":"22","num_nodes":"15","size_leaf_vector":"1"}},{"base_weights":[-3.4645197E-3,-1.0022384E0,1.6506292E0,-2.1638258E0,1.8400297E-1,7.960885E-1,2.5871112E0,-2.6673338E-1,1.1653181E-1,-3.2231364E-1,5.7761054E-2,1.24789454E-1,-1.9349994E-1,1.9901717E-1,4.880099E-1],"categories":[],"categories_nodes":[],"categories_segments":[],"categories_sizes":[],"default_left":[0,0,0,0,0,0,0,0,0,0,0,0,0,0,0],"id":14,"left_children":[1,3,5,7,9,11,13,-1,-1,-1,-1,-1,-1,-1,-1],"loss_changes":[9.6976465E2,5.0471796E2,1.7479834E2,3.1321472E2,2.4593748E2,1.4678352E2,1.3400916E2,0E0,0E0,0E0,0E0,0E0,0E0,0E0,0E0],"parents":[2147483647,0,0,1,1,2,2,3,3,4,4,5,5,6,6],"right_children":[2,4,6,8,10,12,14,-1,-1,-1,-1,-1,-1,-1,-1],"split_conditions":[2.5744888E1,1E0,1E0,2.6005238E1,2.0714708E1,8.469318E1,2.947651E1,-2.6673338E-1,1.1653181E-1,-3.2231364E-1,5.7761054E-2,1.24789454E-1,-1.9349994E-1,1.9901717E-1,4.880099E-1],"split_indices":[9,0,0,13,9,19,9,0,0,0,0,0,0,0,0],"split_type":[0,0,0,0,0,0,0,0,0,0,0,0,0,0,0],"sum_hessian":[5.85E2,3.65E2,2.2E2,1.84E2,1.81E2,1.16E2,1.04E2,1.6E2,2.4E1,1.8E1,1.63E2,1E2,1.6E1,8.4E1,2E1],"tree_param":{"num_deleted":"0","num_feature":"22","num_nodes":"15","size_leaf_vector":"1"}},{"base_weights":[-2.7715338E-3,-1.8807607E0,7.502236E-1,-2.659229E0,-4.3519732E-1,-1.4631635E-1,1.643191E0,-3.8103926E-1,-1.4161848E-1,-1.6253777E-1,1.0796668E-1,-1.17811434E-1,9.166519E-2,1.2293994E-1,3.9064884E-1],"categories":[],"categories_nodes":[],"categories_segments":[],"categories_sizes":[],"default_left":[0,0,0,0,0,0,0,0,0,0,0,0,0,0,0],"id":15,"left_children":[1,3,5,7,9,11,13,-1,-1,-1,-1,-1,-1,-1,-1],"loss_changes":[8.300834E2,1.8789734E2,3.356838E2,1.5057709E2,1.0993255E2,2.3140129E2,1.9186945E2,0E0,0E0,0E0,0E0,0E0,0E0,0E0,0E0],"parents":[2147483647,0,0,1,1,2,2,3,3,4,4,5,5,6,6],"right_children":[2,4,6,8,10,12,14,-1,-1,-1,-1,-1,-1,-1,-1],"split_conditions":[2.2810125E1,7E0,1E0,1E0,2.1853117E1,5E0,7.936611E1,-3.8103926E-1,-1.4161848E-1,-1.6253777E-1,1.0796668E-1,-1.17811434E-1,9.166519E-2,1.2293994E-1,3.9064884E-1],"split_indices":[9,12,0,0,9,12,21,0,0,0,0,0,0,0,0],"split_type":[0,0,0,0,0,0,0,0,0,0,0,0,0,0,0],"sum_hessian":[5.85E2,1.67E2,4.18E2,1.08E2,5.9E1,2.09E2,2.09E2,5.5E1,5.3E1,3.3E1,2.6E1,1.06E2,1.03E2,1.78E2,3.1E1],"tree_param":{"num_deleted":"0","num_feature":"22","num_nodes":"15","size_leaf_vector":"1"}},{"base_weights":[-2.6474064E-3,-8.5931224E-1,1.4160947E0,-1.8162049E0,1.1807486E-1,3.4009048E-1,2.1527379E0,-2.1434644E-1,2.3341392E-1,1.2237674E-1,-9.300604E-2,-4.9594212E-2,3.5343164E-1,2.9117432E-1,4.156107E-2],"categories":[],"categories_nodes":[],"categories_segments":[],"categories_sizes":[],"default_left":[0,0,0,0,0,0,0,0,0,0,0,0,0,0,0],"id":16,"left_children":[1,3,5,7,9,11,13,-1,-1,-1,-1,-1,-1,-1,-1],"loss_changes":[7.134333E2,3.4251767E2,1.7443939E2,2.5627734E2,2.1206076E2,2.447662E2,1.715119E2,0E0,0E0,0E0,0E0,0E0,0E0,0E0,0E0],"parents":[2147483647,0,0,1,1,2,2,3,3,4,4,5,5,6,6],"right_children":[2,4,6,8,10,12,14,-1,-1,-1,-1,-1,-1,-1,-1],"split_conditions":[2.5744888E1,1E0,7.510348E1,2.7399328E1,4.579718E1,2.9531473E1,8.151852E1,-2.1434644E-1,2.3341392E-1,1.2237674E-1,-9.300604E-2,-4.9594212E-2,3.5343164E-1,2.9117432E-1,4.156107E-2],"split_indices":[9,0,20,13,10,9,19,0,0,0,0,0,0,0,0],"split_type":[0,0,0,0,0,0,0,0,0,0,0,0,0,0,0],"sum_hessian":[5.85E2,3.65E2,2.2E2,1.84E2,1.81E2,9E1,1.3E2,1.71E2,1.3E1,8.8E1,9.3E1,7.2E1,1.8E1,9E1,4E1],"tree_param":{"num_deleted":"0","num_feature":"22","num_nodes":"15","size_leaf_vector":"1"}},{"base_weights":[-1.2140567E-3,-1.5987028E0,6.3930935E-1,-2.596467E0,-5.4561317E-1,-2.1855595E0,8.4719145E-1,-2.1193397E-1,-6.9835424E-1,-2.6426396E-1,1.6205609E-2,-1.264945E-1,-7.623164E-1,-8.8679776E-2,1.2149873E-1],"categories":[],"categories_nodes":[],"categories_segments":[],"categories_sizes":[],"default_left":[0,0,0,0,0,0,0,0,0,0,0,0,0,0,0],"id":17,"left_children":[1,3,5,7,9,11,13,-1,-1,-1,-1,-1,-1,-1,-1],"loss_changes":[6.006343E2,1.7510684E2,2.4790497E2,1.6521417E2,1.23600334E2,1.3552933E2,2.5043927E2,0E0,0E0,0E0,0E0,0E0,0E0,0E0,0E0],"parents":[2147483647,0,0,1,1,2,2,3,3,4,4,5,5,6,6],"right_children":[2,4,6,8,10,12,14,-1,-1,-1,-1,-1,-1,-1,-1],"split_conditions":[2.2810125E1,1E0,7.418581E1,2.4E1,7E0,1E0,2E0,-2.1193397E-1,-6.9835424E-1,-2.6426396E-1,1.6205609E-2,-1.264945E-1,-7.623164E-1,-8.8679776E-2,1.2149873E-1],"split_indices":[9,1,21,15,15,3,12,0,0,0,0,0,0,0,0],"split_type":[0,0,0,0,0,0,0,0,0,0,0,0,0,0,0],"sum_hessian":[5.85E2,1.67E2,4.18E2,8.5E1,8.2E1,2.8E1,3.9E2,7.8E1,7E0,2E1,6.2E1,2.5E1,3E0,6.8E1,3.22E2],"tree_param":{"num_deleted":"0","num_feature":"22","num_nodes":"15","size_leaf_vector":"1"}},{"base_weights":[-4.529497E-3,-7.3780364E-1,1.2098726E0,-1.2336866E0,1.0222003E0,3.7352082E-1,2.005912E0,-2.1192966E-1,-3.2067843E-2,4.040618E-2,4.5428252E-1,-9.041362E-2,2.3556022E-1,3.2834435E-1,8.63042E-2],"categories":[],"categories_nodes":[],"categories_segments":[],"categories_sizes":[],"default_left":[0,0,0,0,0,0,0,0,0,0,0,0,0,0,0],"id":18,"left_children":[1,3,5,7,9,11,13,-1,-1,-1,-1,-1,-1,-1,-1],"loss_changes":[5.2271954E2,3.206897E2,1.4638571E2,2.3057123E2,1.7443935E2,2.781636E2,1.6215213E2,0E0,0E0,0E0,0E0,0E0,0E0,0E0,0E0],"parents":[2147483647,0,0,1,1,2,2,3,3,4,4,5,5,6,6],"right_children":[2,4,6,8,10,12,14,-1,-1,-1,-1,-1,-1,-1,-1],"split_conditions":[2.5744888E1,8E0,1E0,1E0,7.92246E1,6E0,1.2E1,-2.1192966E-1,-3.2067843E-2,4.040618E-2,4.5428252E-1,-9.041362E-2,2.3556022E-1,3.2834435E-1,8.63042E-2],"split_indices":[9,12,1,0,21,12,14,0,0,0,0,0,0,0,0],"split_type":[0,0,0,0,0,0,0,0,0,0,0,0,0,0,0],"sum_hessian":[5.85E2,3.65E2,2.2E2,2.85E2,8E1,1.08E2,1.12E2,1.44E2,1.41E2,6.9E1,1.1E1,6.6E1,4.2E1,5.2E1,6E1],"tree_param":{"num_deleted":"0","num_feature":"22","num_nodes":"15","size_leaf_vector":"1"}},{"base_weights":[-2.6935083E-3,-1.6361086E0,4.6656105E-1,-2.5834692E0,-5.725535E-1,1.2017505E0,-2.6106748E-1,-1.6813056E-1,-5.466804E-1,-1.0115414E-2,-7.5004065E-1,4.4618114E-3,2.0963715E-1,2.942866E-1,-5.8021765E-2],"categories":[],"categories_nodes":[],"categories_segments":[],"categories_sizes":[],"default_left":[0,0,0,0,0,0,0,0,0,0,0,0,0,0,0],"id":19,"left_children":[1,3,5,7,9,11,13,-1,-1,-1,-1,-1,-1,-1,-1],"loss_changes":[4.4992502E2,1.3051248E2,2.4424857E2,1.7029419E2,2.049858E2,2.3489575E2,2.3689075E2,0E0,0E0,0E0,0E0,0E0,0E0,0E0,0E0],"parents":[2147483647,0,0,1,1,2,2,3,3,4,4,5,5,6,6],"right_children":[2,4,6,8,10,12,14,-1,-1,-1,-1,-1,-1,-1,-1],"split_conditions":[2.2231707E1,1E0,4.5538643E1,2.2E1,8.741591E1,7.6619095E1,2E0,-1.6813056E-1,-5.466804E-1,-1.0115414E-2,-7.5004065E-1,4.4618114E-3,2.0963715E-1,2.942866E-1,-5.8021765E-2],"split_indices":[9,1,10,15,20,21,14,0,0,0,0,0,0,0,0],"split_type":[0,0,0,0,0,0,0,0,0,0,0,0,0,0,0],"sum_hessian":[5.85E2,1.3E2,4.55E2,6.8E1,6.2E1,2.26E2,2.29E2,5.3E1,1.5E1,5.9E1,3E0,9.9E1,1.27E2,2E1,2.09E2],"tree_param":{"num_deleted":"0","num_feature":"22","num_nodes":"15","size_leaf_vector":"1"}},{"base_weights":[-4.173871E-3,-6.352292E-1,1.0409411E0,-1.0814283E0,9.480818E-1,1.3058338E-1,1.6653808E0,-3.5644335E-1,-8.0882E-2,4.055615E-2,4.0337768E-1,-6.1661404E-2,2.9945216E-1,2.1245246E-1,-8.408254E-2],"categories":[],"categories_nodes":[],"categories_segments":[],"categories_sizes":[],"default_left":[0,0,0,0,0,0,0,0,0,0,0,0,0,0,0],"id":20,"left_children":[1,3,5,7,9,11,13,-1,-1,-1,-1,-1,-1,-1,-1],"loss_changes":[3.8714304E2,2.5959406E2,1.25412964E2,1.9070697E2,1.3396227E2,1.9657985E2,1.5252917E2,0E0,0E0,0E0,0E0,0E0,0E0,0E0,0E0],"parents":[2147483647,0,0,1,1,2,2,3,3,4,4,5,5,6,6],"right_children":[2,4,6,8,10,12,14,-1,-1,-1,-1,-1,-1,-1,-1],"split_conditions":[2.5744888E1,8E0,7.510348E1,2.911491E0,7.92246E1,2.9531473E1,1.8686315E3,-3.5644335E-1,-8.0882E-2,4.055615E-2,4.0337768E-1,-6.1661404E-2,2.9945216E-1,2.1245246E-1,-8.408254E-2],"split_indices":[9,12,20,13,21,9,11,0,0,0,0,0,0,0,0],"split_type":[0,0,0,0,0,0,0,0,0,0,0,0,0,0,0],"sum_hessian":[5.85E2,3.65E2,2.2E2,2.85E2,8E1,9E1,1.3E2,2.7E1,2.58E2,6.9E1,1.1E1,7.2E1,1.8E1,1.1E2,2E1],"tree_param":{"num_deleted":"0","num_feature":"22","num_nodes":"15","size_leaf_vector":"1"}},{"base_weights":[-3.122473E-3,-1.4157983E0,4.0271887E-1,-4.0051904E0,-1.096584E0,-2.632415E-1,1.0757064E0,-5.373885E-1,-4.6676334E-2,-1.5863389E-1,6.974081E-2,-1.2024911E-1,4.8146162E-2,8.8786654E-2,4.6834826E-1],"categories":[],"categories_nodes":[],"categories_segments":[],"categories_sizes":[],"default_left":[0,0,0,0,0,0,0,0,0,0,0,0,0,0,0],"id":21,"left_children":[1,3,5,7,9,11,13,-1,-1,-1,-1,-1,-1,-1,-1],"loss_changes":[3.3653702E2,1.0388876E2,2.0465462E2,6.529404E1,1.04783066E2,1.6145523E2,1.49676E2,0E0,0E0,0E0,0E0,0E0,0E0,0E0,0E0],"parents":[2147483647,0,0,1,1,2,2,3,3,4,4,5,5,6,6],"right_children":[2,4,6,8,10,12,14,-1,-1,-1,-1,-1,-1,-1,-1],"split_conditions":[2.2231707E1,1E0,1E0,7.7708046E1,2.2399406E1,4E0,2.9720491E1,-5.373885E-1,-4.6676334E-2,-1.5863389E-1,6.974081E-2,-1.2024911E-1,4.8146162E-2,8.8786654E-2,4.6834826E-1],"split_indices":[9,12,0,18,13,12,9,0,0,0,0,0,0,0,0],"split_type":[0,0,0,0,0,0,0,0,0,0,0,0,0,0,0],"sum_hessian":[5.85E2,1.3E2,4.55E2,1.3E1,1.17E2,2.29E2,2.26E2,9E0,4E0,9.2E1,2.5E1,1.01E2,1.28E2,2.16E2,1E1],"tree_param":{"num_deleted":"0","num_feature":"22","num_nodes":"15","size_leaf_vector":"1"}},{"base_weights":[-3.131131E-3,-3.9754283E-1,1.2444628E0,4.4489706E-1,-1.0658382E0,3.9074206E-1,2.4594297E0,-1.8017944E-2,1.8855761E-1,-2.4631727E-1,-3.3953965E-2,-9.474715E-2,1.8173434E-1,2.9077503E-1,-4.319832E-1],"categories":[],"categories_nodes":[],"categories_segments":[],"categories_sizes":[],"default_left":[0,0,0,0,0,0,0,0,0,0,0,0,0,0,0],"id":22,"left_children":[1,3,5,7,9,11,13,-1,-1,-1,-1,-1,-1,-1,-1],"loss_changes":[2.888452E2,2.5157164E2,1.452902E2,1.7864558E2,2.518693E2,1.6208603E2,1.8883926E2,0E0,0E0,0E0,0E0,0E0,0E0,0E0,0E0],"parents":[2147483647,0,0,1,1,2,2,3,3,4,4,5,5,6,6],"right_children":[2,4,6,8,10,12,14,-1,-1,-1,-1,-1,-1,-1,-1],"split_conditions":[2.733662E1,4.518328E1,7.891225E1,7.798022E1,4E0,2.9073275E1,1.9316599E3,-1.8017944E-2,1.8855761E-1,-2.4631727E-1,-3.3953965E-2,-9.474715E-2,1.8173434E-1,2.9077503E-1,-4.319832E-1],"split_indices":[9,10,19,21,12,9,11,0,0,0,0,0,0,0,0],"split_type":[0,0,0,0,0,0,0,0,0,0,0,0,0,0,0],"sum_hessian":[5.85E2,4.45E2,1.4E2,1.97E2,2.48E2,8.3E1,5.7E1,1.38E2,5.9E1,8.4E1,1.64E2,4.3E1,4E1,5.4E1,3E0],"tree_param":{"num_deleted":"0","num_feature":"22","num_nodes":"15","size_leaf_vector":"1"}},{"base_weights":[-3.0980224E-3,-1.5113891E0,2.954884E-1,1.2992148E0,-1.9234651E0,-3.530944E-1,9.195402E-1,4.3431202E-1,-1.9302924E-1,-2.5123104E-1,-1.230304E-2,-9.6035205E-2,8.810161E-2,8.0158696E-2,4.8996922E-1],"categories":[],"categories_nodes":[],"categories_segments":[],"categories_sizes":[],"default_left":[0,0,0,0,0,0,0,0,0,0,0,0,0,0,0],"id":23,"left_children":[1,3,5,7,9,11,13,-1,-1,-1,-1,-1,-1,-1,-1],"loss_changes":[2.6435474E2,1.1484271E2,1.9865184E2,1.3617758E2,8.9806E1,1.8145705E2,1.13440445E2,0E0,0E0,0E0,0E0,0E0,0E0,0E0,0E0],"parents":[2147483647,0,0,1,1,2,2,3,3,4,4,5,5,6,6],"right_children":[2,4,6,8,10,12,14,-1,-1,-1,-1,-1,-1,-1,-1],"split_conditions":[2.1762518E1,3.4475903E1,1E0,1E1,8.206411E1,2.0755903E1,9.378947E1,4.3431202E-1,-1.9302924E-1,-2.5123104E-1,-1.230304E-2,-9.6035205E-2,8.810161E-2,8.0158696E-2,4.8996922E-1],"split_indices":[9,10,1,15,19,13,20,0,0,0,0,0,0,0,0],"split_type":[0,0,0,0,0,0,0,0,0,0,0,0,0,0,0],"sum_hessian":[5.85E2,9.6E1,4.89E2,1.2E1,8.4E1,2.4E2,2.49E2,6E0,6E0,6.3E1,2.1E1,1.61E2,7.9E1,2.43E2,6E0],"tree_param":{"num_deleted":"0","num_feature":"22","num_nodes":"15","size_leaf_vector":"1"}},{"base_weights":[-1.8676979E-3,-6.170276E-1,6.4556235E-1,-4.0586624E0,-4.095721E-1,7.348667E-1,-5.8341086E-1,-5.0893363E-2,-7.157428E-1,-1.0061109E-1,5.6287695E-2,-2.0526786E-1,9.3195535E-2],"categories":[],"categories_nodes":[],"categories_segments":[],"categories_sizes":[],"default_left":[0,0,0,0,0,0,0,0,0,0,0,0,0],"id":24,"left_children":[1,3,5,7,9,11,-1,-1,-1,-1,-1,-1,-1],"loss_changes":[2.3378632E2,2.1324748E2,1.6978477E2,1.8335358E2,1.6589584E2,1.5739139E2,0E0,0E0,0E0,0E0,0E0,0E0,0E0],"parents":[2147483647,0,0,1,1,2,2,3,3,4,4,5,5],"right_children":[2,4,6,8,10,12,-1,-1,-1,-1,-1,-1,-1],"split_conditions":[1E0,1.5465924E0,5.9356823E1,7.168216E1,2.596679E1,2.0714708E1,-5.8341086E-1,-5.0893363E-2,-7.157428E-1,-1.0061109E-1,5.6287695E-2,-2.0526786E-1,9.3195535E-2],"split_indices":[0,13,10,19,9,9,0,0,0,0,0,0,0],"split_type":[0,0,0,0,0,0,0,0,0,0,0,0,0],"sum_hessian":[5.85E2,3E2,2.85E2,1.6E1,2.84E2,2.82E2,3E0,8E0,8E0,1.76E2,1.08E2,1.8E1,2.64E2],"tree_param":{"num_deleted":"0","num_feature":"22","num_nodes":"13","size_leaf_vector":"1"}},{"base_weights":[-4.251493E-3,-5.9528667E-1,5.8881533E-1,-1.6626028E0,1.0960819E-1,-7.710645E-2,1.3373297E0,-2.3237143E-1,7.4066095E-2,-6.811974E-2,2.3936851E-1,-2.7548853E-1,2.92132E-2,1.00058846E-1,4.2484257E-1],"categories":[],"categories_nodes":[],"categories_segments":[],"categories_sizes":[],"default_left":[0,0,0,0,0,0,0,0,0,0,0,0,0,0,0],"id":25,"left_children":[1,3,5,7,9,11,13,-1,-1,-1,-1,-1,-1,-1,-1],"loss_changes":[2.057572E2,2.2137186E2,1.4614957E2,1.8761362E2,3.23145E2,1.5504803E2,1.3102863E2,0E0,0E0,0E0,0E0,0E0,0E0,0E0,0E0],"parents":[2147483647,0,0,1,1,2,2,3,3,4,4,5,5,6,6],"right_children":[2,4,6,8,10,12,14,-1,-1,-1,-1,-1,-1,-1,-1],"split_conditions":[1E0,4E0,1E0,7.865123E1,2.2936054E1,3.3299077E0,8.622365E1,-2.3237143E-1,7.4066095E-2,-6.811974E-2,2.3936851E-1,-2.7548853E-1,2.92132E-2,1.00058846E-1,4.2484257E-1],"split_indices":[1,12,0,21,13,13,20,0,0,0,0,0,0,0,0],"split_type":[0,0,0,0,0,0,0,0,0,0,0,0,0,0,0],"sum_hessian":[5.85E2,2.93E2,2.92E2,1.16E2,1.77E2,1.55E2,1.37E2,9.1E1,2.5E1,1.32E2,4.5E1,1.8E1,1.37E2,1.24E2,1.3E1],"tree_param":{"num_deleted":"0","num_feature":"22","num_nodes":"15","size_leaf_vector":"1"}},{"base_weights":[-3.328883E-3,-6.175936E-1,5.5311E-1,-8.3624256E-1,2.4184577E0,-3.41983E0,6.979061E-1,-1.6456148E-1,-2.5416536E-2,2.625787E-2,7.045767E-1,7.095566E-2,-4.4163114E-1,1.05252504E-1,-8.199131E-2],"categories":[],"categories_nodes":[],"categories_segments":[],"categories_sizes":[],"default_left":[0,0,0,0,0,0,0,0,0,0,0,0,0,0,0],"id":26,"left_children":[1,3,5,7,9,11,13,-1,-1,-1,-1,-1,-1,-1,-1],"loss_changes":[2.0063684E2,1.8723087E2,1.795687E2,1.2254332E2,1.8769238E2,4.839705E1,1.6126068E2,0E0,0E0,0E0,0E0,0E0,0E0,0E0,0E0],"parents":[2147483647,0,0,1,1,2,2,3,3,4,4,5,5,6,6],"right_children":[2,4,6,8,10,12,14,-1,-1,-1,-1,-1,-1,-1,-1],"split_conditions":[2.453216E1,2.8313385E1,7.330658E1,7.628198E1,2.315919E1,2E0,8.469318E1,-1.6456148E-1,-2.5416536E-2,2.625787E-2,7.045767E-1,7.095566E-2,-4.4163114E-1,1.05252504E-1,-8.199131E-2],"split_indices":[9,13,21,21,9,14,19,0,0,0,0,0,0,0,0],"split_type":[0,0,0,0,0,0,0,0,0,0,0,0,0,0,0],"sum_hessian":[5.85E2,2.78E2,3.07E2,2.6E2,1.8E1,1E1,2.97E2,1.08E2,1.52E2,1.3E1,5E0,2E0,8E0,2.41E2,5.6E1],"tree_param":{"num_deleted":"0","num_feature":"22","num_nodes":"15","size_leaf_vector":"1"}},{"base_weights":[-2.668218E-3,-2.0122616E0,1.4429048E-1,-2.7936733E0,1.462594E0,-3.7557507E-1,6.989232E-1,3.1707764E-2,-3.496695E-1,2.2175153E-1,-1.9109268E-1,-3.2428122E-1,-2.0299535E-2,7.876968E-2,-5.290476E-1],"categories":[],"categories_nodes":[],"categories_segments":[],"categories_sizes":[],"default_left":[0,0,0,0,0,0,0,0,0,0,0,0,0,0,0],"id":27,"left_children":[1,3,5,7,9,11,13,-1,-1,-1,-1,-1,-1,-1,-1],"loss_changes":[1.7335211E2,1.1269774E2,1.5798141E2,7.327725E1,2.4611444E1,1.3937778E2,1.4506789E2,0E0,0E0,0E0,0E0,0E0,0E0,0E0,0E0],"parents":[2147483647,0,0,1,1,2,2,3,3,4,4,5,5,6,6],"right_children":[2,4,6,8,10,12,14,-1,-1,-1,-1,-1,-1,-1,-1],"split_conditions":[2.0751797E1,8.110902E1,1E0,6.780697E1,1E0,1.5465924E0,5.9356823E1,3.1707764E-2,-3.496695E-1,2.2175153E-1,-1.9109268E-1,-3.2428122E-1,-2.0299535E-2,7.876968E-2,-5.290476E-1],"split_indices":[9,19,0,19,3,13,10,0,0,0,0,0,0,0,0],"split_type":[0,0,0,0,0,0,0,0,0,0,0,0,0,0,0],"sum_hessian":[5.85E2,3.9E1,5.46E2,3.2E1,7E0,2.82E2,2.64E2,6E0,2.6E1,6E0,1E0,1.5E1,2.67E2,2.61E2,3E0],"tree_param":{"num_deleted":"0","num_feature":"22","num_nodes":"15","size_leaf_vector":"1"}},{"base_weights":[-4.2453283E-3,-2.3091765E-1,1.23129E0,-6.463048E-1,5.5531335E-1,1.7136086E0,-1.5438625E0,-4.3741533E-1,-5.38428E-2,4.7933865E-1,3.4646552E-2,1.9393845E-1,-4.5772502E-1,-4.317885E-1,4.770262E-2],"categories":[],"categories_nodes":[],"categories_segments":[],"categories_sizes":[],"default_left":[0,0,0,0,0,0,0,0,0,0,0,0,0,0,0],"id":28,"left_children":[1,3,5,7,9,11,13,-1,-1,-1,-1,-1,-1,-1,-1],"loss_changes":[1.6440045E2,1.6234766E2,1.2444977E2,1.2834305E2,1.505786E2,1.1966237E2,8.054361E1,0E0,0E0,0E0,0E0,0E0,0E0,0E0,0E0],"parents":[2147483647,0,0,1,1,2,2,3,3,4,4,5,5,6,6],"right_children":[2,4,6,8,10,12,14,-1,-1,-1,-1,-1,-1,-1,-1],"split_conditions":[2.8371521E1,7E0,2.2E1,7.3375374E1,6.3582138E1,1.9524543E3,2.4E1,-4.3741533E-1,-5.38428E-2,4.7933865E-1,3.4646552E-2,1.9393845E-1,-4.5772502E-1,-4.317885E-1,4.770262E-2],"split_indices":[9,12,15,21,18,11,15,0,0,0,0,0,0,0,0],"split_type":[0,0,0,0,0,0,0,0,0,0,0,0,0,0,0],"sum_hessian":[5.85E2,4.95E2,9E1,3.24E2,1.71E2,7.7E1,1.3E1,8E0,3.16E2,7E0,1.64E2,7.5E1,2E0,5E0,8E0],"tree_param":{"num_deleted":"0","num_feature":"22","num_nodes":"15","size_leaf_vector":"1"}},{"base_weights":[-4.888417E-3,-5.2481425E-1,5.168286E-1,1.2084447E0,-8.5951716E-1,-3.7082646E-2,1.139244E0,-2.1486615E-1,1.73919E-1,-1.6296296E-1,6.817847E-2,2.2163431E-1,-4.0403288E-2,4.5975986E-1,8.91056E-2],"categories":[],"categories_nodes":[],"categories_segments":[],"categories_sizes":[],"default_left":[0,0,0,0,0,0,0,0,0,0,0,0,0,0,0],"id":29,"left_children":[1,3,5,7,9,11,13,-1,-1,-1,-1,-1,-1,-1,-1],"loss_changes":[1.5922617E2,1.7159598E2,1.0105777E2,8.92618E1,2.94294E2,1.2989111E2,1.14351715E2,0E0,0E0,0E0,0E0,0E0,0E0,0E0,0E0],"parents":[2147483647,0,0,1,1,2,2,3,3,4,4,5,5,6,6],"right_children":[2,4,6,8,10,12,14,-1,-1,-1,-1,-1,-1,-1,-1],"split_conditions":[1E0,6.762811E1,1E0,7.411657E1,2.088179E1,3.5713795E1,6.3290287E1,-2.1486615E-1,1.73919E-1,-1.6296296E-1,6.817847E-2,2.2163431E-1,-4.0403288E-2,4.5975986E-1,8.91056E-2],"split_indices":[1,19,0,21,13,10,18,0,0,0,0,0,0,0,0],"split_type":[0,0,0,0,0,0,0,0,0,0,0,0,0,0,0],"sum_hessian":[5.85E2,2.93E2,2.92E2,4.7E1,2.46E2,1.55E2,1.37E2,6E0,4.1E1,1.64E2,8.2E1,2.1E1,1.34E2,8E0,1.29E2],"tree_param":{"num_deleted":"0","num_feature":"22","num_nodes":"15","size_leaf_vector":"1"}},{"base_weights":[-3.3839294E-3,3.2923665E0,-7.802047E-2,4.8086998E-1,7.2186154E-1,-7.490544E-1,2.8837174E-1,1.7768453E-1,-2.498417E-2,-1.2690139E-1,1.3363712E-1,3.6988014E-1,1.8394332E-2],"categories":[],"categories_nodes":[],"categories_segments":[],"categories_sizes":[],"default_left":[0,0,0,0,0,0,0,0,0,0,0,0,0],"id":30,"left_children":[1,3,5,-1,7,9,11,-1,-1,-1,-1,-1,-1],"loss_changes":[1.4440314E2,4.7199448E1,1.4134058E2,0E0,6.594717E0,2.2181625E2,1.3180588E2,0E0,0E0,0E0,0E0,0E0,0E0],"parents":[2147483647,0,0,1,1,2,2,4,4,5,5,6,6],"right_children":[2,4,6,-1,8,10,12,-1,-1,-1,-1,-1,-1],"split_conditions":[3.0625189E1,8.129991E1,7.628198E1,4.8086998E-1,2.299213E1,2.5046347E1,6.3290287E1,1.7768453E-1,-2.498417E-2,-1.2690139E-1,1.3363712E-1,3.6988014E-1,1.8394332E-2],"split_indices":[10,18,21,0,9,13,18,0,0,0,0,0,0],"split_type":[0,0,0,0,0,0,0,0,0,0,0,0,0],"sum_hessian":[5.85E2,1.2E1,5.73E2,7E0,5E0,2.02E2,3.71E2,2E0,3E0,1.62E2,4E1,1E1,3.61E2],"tree_param":{"num_deleted":"0","num_feature":"22","num_nodes":"13","size_leaf_vector":"1"}},{"base_weights":[-1.2908063E-3,5.191324E-1,-4.5999303E-1,4.159461E-2,1.4685652E0,-1.692244E0,5.5061687E-2,-1.11388706E-1,7.6087184E-2,3.250223E-1,3.175434E-2,-3.0105653E-1,-1.8565344E-2,-3.743176E-2,1.6967072E-1],"categories":[],"categories_nodes":[],"categories_segments":[],"categories_sizes":[],"default_left":[0,0,0,0,0,0,0,0,0,0,0,0,0,0,0],"id":31,"left_children":[1,3,5,7,9,11,13,-1,-1,-1,-1,-1,-1,-1,-1],"loss_changes":[1.401283E2,1.24621185E2,1.9811229E2,1.5377205E2,1.8763477E2,1.821688E2,1.5641548E2,0E0,0E0,0E0,0E0,0E0,0E0,0E0,0E0],"parents":[2147483647,0,0,1,1,2,2,3,3,4,4,5,5,6,6],"right_children":[2,4,6,8,10,12,14,-1,-1,-1,-1,-1,-1,-1,-1],"split_conditions":[4.518328E1,7.78291E1,4.9276768E1,7.3377045E1,7.568903E1,1E0,2.733662E1,-1.11388706E-1,7.6087184E-2,3.250223E-1,3.175434E-2,-3.0105653E-1,-1.8565344E-2,-3.743176E-2,1.6967072E-1],"split_indices":[10,21,10,18,18,0,9,0,0,0,0,0,0,0,0],"split_type":[0,0,0,0,0,0,0,0,0,0,0,0,0,0,0],"sum_hessian":[5.85E2,2.74E2,3.11E2,1.83E2,9.1E1,9.1E1,2.2E2,7E1,1.13E2,3.5E1,5.6E1,4.8E1,4.3E1,1.75E2,4.5E1],"tree_param":{"num_deleted":"0","num_feature":"22","num_nodes":"15","size_leaf_vector":"1"}},{"base_weights":[-9.335723E-4,-8.232346E-2,2.571943E0,-5.729278E-1,4.155061E-1,3.7975347E0,-5.121625E-1,-1.4738286E-1,2.9248607E-3,-1.524024E-1,5.608663E-2,1.1088206E-1,5.339379E-1,-1.2481888E-1,1.5839843E-1],"categories":[],"categories_nodes":[],"categories_segments":[],"categories_sizes":[],"default_left":[0,0,0,0,0,0,0,0,0,0,0,0,0,0,0],"id":32,"left_children":[1,3,5,7,9,11,13,-1,-1,-1,-1,-1,-1,-1,-1],"loss_changes":[1.2292374E2,1.3920909E2,6.998232E1,1.5574094E2,8.06411E1,4.7972076E1,1.1234026E1,0E0,0E0,0E0,0E0,0E0,0E0,0E0,0E0],"parents":[2147483647,0,0,1,1,2,2,3,3,4,4,5,5,6,6],"right_children":[2,4,6,8,10,12,14,-1,-1,-1,-1,-1,-1,-1,-1],"split_conditions":[8.00296E1,1E0,8.174553E1,4E0,2.0824745E1,1.5122463E1,1E0,-1.4738286E-1,2.9248607E-3,-1.524024E-1,5.608663E-2,1.1088206E-1,5.339379E-1,-1.2481888E-1,1.5839843E-1],"split_indices":[21,1,18,12,9,13,3,0,0,0,0,0,0,0,0],"split_type":[0,0,0,0,0,0,0,0,0,0,0,0,0,0,0],"sum_hessian":[5.85E2,5.68E2,1.7E1,2.86E2,2.82E2,1.2E1,5E0,1.14E2,1.72E2,1.9E1,2.63E2,5E0,7E0,4E0,1E0],"tree_param":{"num_deleted":"0","num_feature":"22","num_nodes":"15","size_leaf_vector":"1"}},{"base_weights":[-9.086922E-5,2.9355521E0,-6.65774E-2,4.2911844E0,6.3878375E-1,-3.3871324E0,4.3164487E-3,1.2488556E-1,4.5473948E-1,1.6027756E-1,-2.4390602E-2,-4.1104499E-1,2.2846794E-1,5.7886552E-2,-3.6864907E-2],"categories":[],"categories_nodes":[],"categories_segments":[],"categories_sizes":[],"default_left":[0,0,0,0,0,0,0,0,0,0,0,0,0,0,0],"id":33,"left_children":[1,3,5,7,9,11,13,-1,-1,-1,-1,-1,-1,-1,-1],"loss_changes":[1.14571335E2,3.773533E1,1.3513818E2,5.567627E-1,5.4963617E0,5.8621292E1,1.2085698E2,0E0,0E0,0E0,0E0,0E0,0E0,0E0,0E0],"parents":[2147483647,0,0,1,1,2,2,3,3,4,4,5,5,6,6],"right_children":[2,4,6,8,10,12,14,-1,-1,-1,-1,-1,-1,-1,-1],"split_conditions":[3.0625189E1,8.129991E1,3.127459E1,3.019726E1,2.299213E1,2.9720491E1,4.3353313E1,1.2488556E-1,4.5473948E-1,1.6027756E-1,-2.4390602E-2,-4.1104499E-1,2.2846794E-1,5.7886552E-2,-3.6864907E-2],"split_indices":[10,18,10,10,9,9,10,0,0,0,0,0,0,0,0],"split_type":[0,0,0,0,0,0,0,0,0,0,0,0,0,0,0],"sum_hessian":[5.85E2,1.2E1,5.73E2,7E0,5E0,1.1E1,5.62E2,1E0,6E0,2E0,3E0,1E1,1E0,2.21E2,3.41E2],"tree_param":{"num_deleted":"0","num_feature":"22","num_nodes":"15","size_leaf_vector":"1"}},{"base_weights":[8.6451066E-4,-1.5457192E-1,1.1677516E0,-4.812288E-1,4.6675718E-1,7.388246E-1,4.8612723E0,-3.5789782E-1,-3.8618736E-2,4.2245618E-1,2.8926184E-2,1.6041276E-1,-1.0681683E-1,6.0429383E-2,5.4700536E-1],"categories":[],"categories_nodes":[],"categories_segments":[],"categories_sizes":[],"default_left":[0,0,0,0,0,0,0,0,0,0,0,0,0,0,0],"id":34,"left_children":[1,3,5,7,9,11,13,-1,-1,-1,-1,-1,-1,-1,-1],"loss_changes":[1.0646729E2,1.05358635E2,1.0572167E2,9.8718796E1,1.1816969E2,1.0022005E2,1.48354645E1,0E0,0E0,0E0,0E0,0E0,0E0,0E0,0E0],"parents":[2147483647,0,0,1,1,2,2,3,3,4,4,5,5,6,6],"right_children":[2,4,6,8,10,12,14,-1,-1,-1,-1,-1,-1,-1,-1],"split_conditions":[2.9073275E1,7E0,1E0,2.026764E1,6.3582138E1,8.104958E1,1E0,-3.5789782E-1,-3.8618736E-2,4.2245618E-1,2.8926184E-2,1.6041276E-1,-1.0681683E-1,6.0429383E-2,5.4700536E-1],"split_indices":[9,12,7,9,18,18,2,0,0,0,0,0,0,0,0],"split_type":[0,0,0,0,0,0,0,0,0,0,0,0,0,0,0],"sum_hessian":[5.85E2,5.17E2,6.8E1,3.39E2,1.78E2,6.2E1,6E0,9E0,3.3E2,7E0,1.71E2,4.2E1,2E1,1E0,5E0],"tree_param":{"num_deleted":"0","num_feature":"22","num_nodes":"15","size_leaf_vector":"1"}},{"base_weights":[2.0012122E-3,-7.105749E-2,2.3113568E0,-5.075241E-1,3.7182927E-1,3.4084802E0,-4.509697E-1,-6.6286065E-2,2.8174827E-1,7.3658663E-4,1.0185009E-1,1.00784175E-1,4.782899E-1,-1.1528641E-1,1.5292512E-1],"categories":[],"categories_nodes":[],"categories_segments":[],"categories_sizes":[],"default_left":[0,0,0,0,0,0,0,0,0,0,0,0,0,0,0],"id":35,"left_children":[1,3,5,7,9,11,13,-1,-1,-1,-1,-1,-1,-1,-1],"loss_changes":[9.90333E1,1.10179405E2,5.608815E1,1.5010173E2,6.6692245E1,3.807286E1,1.0102455E1,0E0,0E0,0E0,0E0,0E0,0E0,0E0,0E0],"parents":[2147483647,0,0,1,1,2,2,3,3,4,4,5,5,6,6],"right_children":[2,4,6,8,10,12,14,-1,-1,-1,-1,-1,-1,-1,-1],"split_conditions":[8.00296E1,1E0,8.174553E1,2.765707E1,2.596679E1,1.5122463E1,1E0,-6.6286065E-2,2.8174827E-1,7.3658663E-4,1.0185009E-1,1.00784175E-1,4.782899E-1,-1.1528641E-1,1.5292512E-1],"split_indices":[21,1,18,13,9,13,3,0,0,0,0,0,0,0,0],"split_type":[0,0,0,0,0,0,0,0,0,0,0,0,0,0,0],"sum_hessian":[5.85E2,5.68E2,1.7E1,2.86E2,2.82E2,1.2E1,5E0,2.74E2,1.2E1,1.81E2,1.01E2,5E0,7E0,4E0,1E0],"tree_param":{"num_deleted":"0","num_feature":"22","num_nodes":"15","size_leaf_vector":"1"}},{"base_weights":[3.3939935E-3,2.721638E0,-5.8174938E-2,3.9341307E-1,6.513748E-1,-3.0313168E0,5.299089E-3,1.2804298E-1,-4.0449016E-2,-3.6929598E-1,2.1233788E-1,4.6691936E-2,-3.67565E-2],"categories":[],"categories_nodes":[],"categories_segments":[],"categories_sizes":[],"default_left":[0,0,0,0,0,0,0,0,0,0,0,0,0],"id":36,"left_children":[1,3,5,-1,7,9,11,-1,-1,-1,-1,-1,-1],"loss_changes":[9.823093E1,3.006974E1,1.08339775E2,0E0,4.5031047E0,4.876837E1,9.7076096E1,0E0,0E0,0E0,0E0,0E0,0E0],"parents":[2147483647,0,0,1,1,2,2,4,4,5,5,6,6],"right_children":[2,4,6,-1,8,10,12,-1,-1,-1,-1,-1,-1],"split_conditions":[3.0625189E1,8.129991E1,3.127459E1,3.9341307E-1,2.476878E1,2.9720491E1,4.518328E1,1.2804298E-1,-4.0449016E-2,-3.6929598E-1,2.1233788E-1,4.6691936E-2,-3.67565E-2],"split_indices":[10,18,10,0,9,9,10,0,0,0,0,0,0],"split_type":[0,0,0,0,0,0,0,0,0,0,0,0,0],"sum_hessian":[5.85E2,1.2E1,5.73E2,7E0,5E0,1.1E1,5.62E2,3E0,2E0,1E1,1E0,2.51E2,3.11E2],"tree_param":{"num_deleted":"0","num_feature":"22","num_nodes":"13","size_leaf_vector":"1"}},{"base_weights":[3.6255443E-3,-7.893256E-1,2.0737396E-1,-2.786077E0,-2.3453759E-1,3.4077327E0,5.655762E-2,-3.551694E-1,3.5792794E-2,-4.2959616E-2,4.310444E-1,4.1959998E-1,-2.7205354E-1,-1.4606545E-2,1.3659108E-1],"categories":[],"categories_nodes":[],"categories_segments":[],"categories_sizes":[],"default_left":[0,0,0,0,0,0,0,0,0,0,0,0,0,0,0],"id":37,"left_children":[1,3,5,7,9,11,13,-1,-1,-1,-1,-1,-1,-1,-1],"loss_changes":[9.483934E1,1.3227942E2,2.2521246E2,6.385594E1,8.607282E1,1.1286034E2,1.1879091E2,0E0,0E0,0E0,0E0,0E0,0E0,0E0,0E0],"parents":[2147483647,0,0,1,1,2,2,3,3,4,4,5,5,6,6],"right_children":[2,4,6,8,10,12,14,-1,-1,-1,-1,-1,-1,-1,-1],"split_conditions":[6.4785366E0,3E0,7.422181E0,1E0,8.910422E1,2.9073275E1,1E0,-3.551694E-1,3.5792794E-2,-4.2959616E-2,4.310444E-1,4.1959998E-1,-2.7205354E-1,-1.4606545E-2,1.3659108E-1],"split_indices":[13,12,13,5,19,9,6,0,0,0,0,0,0,0,0],"split_type":[0,0,0,0,0,0,0,0,0,0,0,0,0,0,0],"sum_hessian":[5.85E2,1.19E2,4.66E2,2.5E1,9.4E1,2E1,4.46E2,2E1,5E0,9.1E1,3E0,1.8E1,2E0,3.87E2,5.9E1],"tree_param":{"num_deleted":"0","num_feature":"22","num_nodes":"15","size_leaf_vector":"1"}},{"base_weights":[3.8431317E-3,-1.4432585E0,1.09657064E-1,-2.0894105E0,1.4025259E0,-1.9708742E0,1.8010971E-1,5.9057076E-2,-2.706835E-1,2.1027768E-1,-1.7496148E-1,2.1415329E-2,-3.3808145E-1,1.640999E-1,6.394144E-3],"categories":[],"categories_nodes":[],"categories_segments":[],"categories_sizes":[],"default_left":[0,0,0,0,0,0,0,0,0,0,0,0,0,0,0],"id":38,"left_children":[1,3,5,7,9,11,13,-1,-1,-1,-1,-1,-1,-1,-1],"loss_changes":[8.988864E1,7.648283E1,8.0533646E1,5.62032E1,2.1337362E1,5.6177666E1,8.984083E1,0E0,0E0,0E0,0E0,0E0,0E0,0E0,0E0],"parents":[2147483647,0,0,1,1,2,2,3,3,4,4,5,5,6,6],"right_children":[2,4,6,8,10,12,14,-1,-1,-1,-1,-1,-1,-1,-1],"split_conditions":[2.0751797E1,8.110902E1,7.330658E1,6.780697E1,1E0,6.942614E1,7.452934E1,5.9057076E-2,-2.706835E-1,2.1027768E-1,-1.7496148E-1,2.1415329E-2,-3.3808145E-1,1.640999E-1,6.394144E-3],"split_indices":[9,19,21,19,3,19,21,0,0,0,0,0,0,0,0],"split_type":[0,0,0,0,0,0,0,0,0,0,0,0,0,0,0],"sum_hessian":[5.85E2,3.9E1,5.46E2,3.2E1,7E0,1.7E1,5.29E2,6E0,2.6E1,6E0,1E0,7E0,1E1,3.8E1,4.91E2],"tree_param":{"num_deleted":"0","num_feature":"22","num_nodes":"15","size_leaf_vector":"1"}},{"base_weights":[2.9089865E-3,-3.7798405E-1,4.0376878E-1,-2.7070446E0,-2.3773137E-1,5.924425E-1,-1.7794329E0,2.7413135E-2,-5.387438E-1,6.005342E-3,-1.3794164E-1,3.353442E-2,2.0238094E-1,2.710167E-1,-3.1771088E-1],"categories":[],"categories_nodes":[],"categories_segments":[],"categories_sizes":[],"default_left":[0,0,0,0,0,0,0,0,0,0,0,0,0,0,0],"id":39,"left_children":[1,3,5,7,9,11,13,-1,-1,-1,-1,-1,-1,-1,-1],"loss_changes":[8.9625854E1,9.768022E1,1.1886128E2,1.3731918E2,9.697612E1,9.6473854E1,1.5293561E2,0E0,0E0,0E0,0E0,0E0,0E0,0E0,0E0],"parents":[2147483647,0,0,1,1,2,2,3,3,4,4,5,5,6,6],"right_children":[2,4,6,8,10,12,14,-1,-1,-1,-1,-1,-1,-1,-1],"split_conditions":[1E0,1.5465924E0,5.616763E1,7.168216E1,8.375996E1,2E1,6.762811E1,2.7413135E-2,-5.387438E-1,6.005342E-3,-1.3794164E-1,3.353442E-2,2.0238094E-1,2.710167E-1,-3.1771088E-1],"split_indices":[0,13,10,19,19,14,18,0,0,0,0,0,0,0,0],"split_type":[0,0,0,0,0,0,0,0,0,0,0,0,0,0,0],"sum_hessian":[5.85E2,3E2,2.85E2,1.6E1,2.84E2,2.63E2,2.2E1,8E0,8E0,2.26E2,5.8E1,2.24E2,3.9E1,5E0,1.7E1],"tree_param":{"num_deleted":"0","num_feature":"22","num_nodes":"15","size_leaf_vector":"1"}},{"base_weights":[1.8448813E-3,-5.713133E-1,2.573616E-1,-9.654799E-1,9.8883456E-1,-7.0724756E-1,4.9994802E-1,-7.4470535E-2,-5.9559745E-1,5.917135E-3,3.8745457E-1,-1.3824068E-1,6.442168E-2,2.708424E-1,3.3065796E-2],"categories":[],"categories_nodes":[],"categories_segments":[],"categories_sizes":[],"default_left":[0,0,0,0,0,0,0,0,0,0,0,0,0,0,0],"id":40,"left_children":[1,3,5,7,9,11,13,-1,-1,-1,-1,-1,-1,-1,-1],"loss_changes":[8.596761E1,1.1226213E2,9.535803E1,1.5532184E2,9.9032104E1,7.571176E1,1.20613174E2,0E0,0E0,0E0,0E0,0E0,0E0,0E0,0E0],"parents":[2147483647,0,0,1,1,2,2,3,3,4,4,5,5,6,6],"right_children":[2,4,6,8,10,12,14,-1,-1,-1,-1,-1,-1,-1,-1],"split_conditions":[7.602158E1,2.483747E1,5.9558105E0,2.4151976E1,7.780851E1,7.8039925E1,7.422181E0,-7.4470535E-2,-5.9559745E-1,5.917135E-3,3.8745457E-1,-1.3824068E-1,6.442168E-2,2.708424E-1,3.3065796E-2],"split_indices":[21,13,13,13,19,21,13,0,0,0,0,0,0,0,0],"split_type":[0,0,0,0,0,0,0,0,0,0,0,0,0,0,0],"sum_hessian":[5.85E2,1.8E2,4.05E2,1.44E2,3.6E1,8.1E1,3.24E2,1.39E2,5E0,2.8E1,8E0,5.4E1,2.7E1,2.2E1,3.02E2],"tree_param":{"num_deleted":"0","num_feature":"22","num_nodes":"15","size_leaf_vector":"1"}},{"base_weights":[1.5803132E-3,-4.9056676E-1,2.9445702E-1,-8.26328E-1,9.8728263E-1,2.506463E0,1.0491986E-1,-1.6026595E-1,-5.318642E-4,-1.8883884E-1,1.8550773E-1,1.0345288E-1,4.2384955E-1,3.2417145E-2,-1.2356142E-1],"categories":[],"categories_nodes":[],"categories_segments":[],"categories_sizes":[],"default_left":[0,0,0,0,0,0,0,0,0,0,0,0,0,0,0],"id":41,"left_children":[1,3,5,7,9,11,13,-1,-1,-1,-1,-1,-1,-1,-1],"loss_changes":[8.460956E1,1.0948461E2,1.5402374E2,1.14081665E2,1.0581827E2,6.954884E1,1.00331375E2,0E0,0E0,0E0,0E0,0E0,0E0,0E0,0E0],"parents":[2147483647,0,0,1,1,2,2,3,3,4,4,5,5,6,6],"right_children":[2,4,6,8,10,12,14,-1,-1,-1,-1,-1,-1,-1,-1],"split_conditions":[4E0,7.870289E1,2E0,1E0,2.4346552E1,7.99385E1,8.658972E1,-1.6026595E-1,-5.318642E-4,-1.8883884E-1,1.8550773E-1,1.0345288E-1,4.2384955E-1,3.2417145E-2,-1.2356142E-1],"split_indices":[12,21,14,1,9,19,19,0,0,0,0,0,0,0,0],"split_type":[0,0,0,0,0,0,0,0,0,0,0,0,0,0,0],"sum_hessian":[5.85E2,2.18E2,3.67E2,1.78E2,4E1,2.8E1,3.39E2,9.1E1,8.7E1,9E0,3.1E1,1.6E1,1.2E1,2.92E2,4.7E1],"tree_param":{"num_deleted":"0","num_feature":"22","num_nodes":"15","size_leaf_vector":"1"}},{"base_weights":[1.8858665E-3,-6.240091E-2,2.0339575E0,-1.2050368E-1,2.895949E0,3.0400643E0,-4.8493323E-1,-5.0048728E-2,2.653808E-2,-1.11558534E-1,3.408661E-1,9.021466E-2,4.2634946E-1,-1.1355378E-1,1.3840447E-1],"categories":[],"categories_nodes":[],"categories_segments":[],"categories_sizes":[],"default_left":[0,0,0,0,0,0,0,0,0,0,0,0,0,0,0],"id":42,"left_children":[1,3,5,7,9,11,13,-1,-1,-1,-1,-1,-1,-1,-1],"loss_changes":[7.667924E1,9.815342E1,4.709114E1,8.209886E1,2.6427025E1,3.015641E1,8.867428E0,0E0,0E0,0E0,0E0,0E0,0E0,0E0,0E0],"parents":[2147483647,0,0,1,1,2,2,3,3,4,4,5,5,6,6],"right_children":[2,4,6,8,10,12,14,-1,-1,-1,-1,-1,-1,-1,-1],"split_conditions":[8.00296E1,2.9927677E1,8.174553E1,1E0,1.01400653E3,1.5122463E1,1E0,-5.0048728E-2,2.653808E-2,-1.11558534E-1,3.408661E-1,9.021466E-2,4.2634946E-1,-1.1355378E-1,1.3840447E-1],"split_indices":[21,9,18,1,11,13,3,0,0,0,0,0,0,0,0],"split_type":[0,0,0,0,0,0,0,0,0,0,0,0,0,0,0],"sum_hessian":[5.85E2,5.68E2,1.7E1,5.58E2,1E1,1.2E1,5E0,2.81E2,2.77E2,1E0,9E0,5E0,7E0,4E0,1E0],"tree_param":{"num_deleted":"0","num_feature":"22","num_nodes":"15","size_leaf_vector":"1"}},{"base_weights":[2.9739016E-3,2.3682468E0,-5.060018E-2,3.3912936E-1,6.0947675E-1,-2.8398767E0,-1.1428968E-3,1.3358408E-1,-8.766556E-3,-3.9663562E-1,1.1106949E-1,-4.981726E-2,2.7046114E-2],"categories":[],"categories_nodes":[],"categories_segments":[],"categories_sizes":[],"default_left":[0,0,0,0,0,0,0,0,0,0,0,0,0],"id":43,"left_children":[1,3,5,-1,7,9,11,-1,-1,-1,-1,-1,-1],"loss_changes":[7.437619E1,2.1324036E1,7.918007E1,0E0,3.1553826E0,4.8907806E1,7.640706E1,0E0,0E0,0E0,0E0,0E0,0E0],"parents":[2147483647,0,0,1,1,2,2,4,4,5,5,6,6],"right_children":[2,4,6,-1,8,10,12,-1,-1,-1,-1,-1,-1],"split_conditions":[3.0625189E1,8.129991E1,3.1229422E1,3.3912936E-1,2.299213E1,1.7570839E3,7.628198E1,1.3358408E-1,-8.766556E-3,-3.9663562E-1,1.1106949E-1,-4.981726E-2,2.7046114E-2],"split_indices":[10,18,10,0,9,11,21,0,0,0,0,0,0],"split_type":[0,0,0,0,0,0,0,0,0,0,0,0,0],"sum_hessian":[5.85E2,1.2E1,5.73E2,7E0,5E0,9E0,5.64E2,2E0,3E0,7E0,2E0,1.99E2,3.65E2],"tree_param":{"num_deleted":"0","num_feature":"22","num_nodes":"13","size_leaf_vector":"1"}},{"base_weights":[2.9429349E-3,-3.3325708E-1,3.5676554E-1,-9.6497945E-2,-1.6107107E0,4.2323112E-1,-4.434866E-1,-3.1605985E-2,2.3650996E-1,3.9032392E-2,-4.1067693E-1,2.6583534E-1,2.8821176E-2],"categories":[],"categories_nodes":[],"categories_segments":[],"categories_sizes":[],"default_left":[0,0,0,0,0,0,0,0,0,0,0,0,0],"id":44,"left_children":[1,3,5,7,9,11,-1,-1,-1,-1,-1,-1,-1],"loss_changes":[6.982662E1,9.088167E1,9.296184E1,1.3856815E2,2.3635384E2,8.4638916E1,0E0,0E0,0E0,0E0,0E0,0E0,0E0],"parents":[2147483647,0,0,1,1,2,2,3,3,4,4,5,5],"right_children":[2,4,6,8,10,12,-1,-1,-1,-1,-1,-1,-1],"split_conditions":[1E0,8.545715E1,5.9356823E1,8.387526E1,7.87305E1,6.3582138E1,-4.434866E-1,-3.1605985E-2,2.3650996E-1,3.9032392E-2,-4.1067693E-1,2.6583534E-1,2.8821176E-2],"split_indices":[0,20,10,20,19,18,0,0,0,0,0,0,0],"split_type":[0,0,0,0,0,0,0,0,0,0,0,0,0],"sum_hessian":[5.85E2,3E2,2.85E2,2.54E2,4.6E1,2.82E2,3E0,2.34E2,2E1,2.6E1,2E1,1.5E1,2.67E2],"tree_param":{"num_deleted":"0","num_feature":"22","num_nodes":"13","size_leaf_vector":"1"}},{"base_weights":[2.109749E-3,-4.3642008E-1,2.6307693E-1,-1.881811E0,-1.2257109E-1,2.243403E0,9.339301E-2,-2.3879467E-1,2.0375E-1,3.6433694E-1,-3.4080848E-2,3.4747306E-1,4.6063583E-2,-1.5283929E-2,1.08056985E-1],"categories":[],"categories_nodes":[],"categories_segments":[],"categories_sizes":[],"default_left":[0,0,0,0,0,0,0,0,0,0,0,0,0,0,0],"id":45,"left_children":[1,3,5,7,9,11,13,-1,-1,-1,-1,-1,-1,-1,-1],"loss_changes":[6.717776E1,9.9115295E1,1.2344931E2,8.222984E1,1.4999998E2,6.2059357E1,8.2810585E1,0E0,0E0,0E0,0E0,0E0,0E0,0E0,0E0],"parents":[2147483647,0,0,1,1,2,2,3,3,4,4,5,5,6,6],"right_children":[2,4,6,8,10,12,14,-1,-1,-1,-1,-1,-1,-1,-1],"split_conditions":[4E0,6.538047E0,2E0,2.1E1,7.6013193E0,1.6289235E3,2.3708443E1,-2.3879467E-1,2.0375E-1,3.6433694E-1,-3.4080848E-2,3.4747306E-1,4.6063583E-2,-1.5283929E-2,1.08056985E-1],"split_indices":[12,13,14,14,13,11,13,0,0,0,0,0,0,0,0],"split_type":[0,0,0,0,0,0,0,0,0,0,0,0,0,0,0],"sum_hessian":[5.85E2,2.18E2,3.67E2,3.8E1,1.8E2,2.8E1,3.39E2,3.4E1,4E0,9E0,1.71E2,1.6E1,1.2E1,2.72E2,6.7E1],"tree_param":{"num_deleted":"0","num_feature":"22","num_nodes":"15","size_leaf_vector":"1"}},{"base_weights":[3.231361E-3,-1.2185998E0,9.2573255E-2,-5.022867E0,-7.743925E-1,-1.6490667E0,1.5154862E-1,-5.662982E-1,-1.551262E-1,-1.5758859E-1,1.2633084E-1,2.3975944E-2,-2.8728434E-1,1.5423167E-1,4.0996796E-3],"categories":[],"categories_nodes":[],"categories_segments":[],"categories_sizes":[],"default_left":[0,0,0,0,0,0,0,0,0,0,0,0,0,0,0],"id":46,"left_children":[1,3,5,7,9,11,13,-1,-1,-1,-1,-1,-1,-1,-1],"loss_changes":[6.4080986E1,6.3705658E1,5.6434395E1,1.04141235E-1,6.2419357E1,4.2295815E1,8.14253E1,0E0,0E0,0E0,0E0,0E0,0E0,0E0,0E0],"parents":[2147483647,0,0,1,1,2,2,3,3,4,4,5,5,6,6],"right_children":[2,4,6,8,10,12,14,-1,-1,-1,-1,-1,-1,-1,-1],"split_conditions":[2.0751797E1,4E0,7.330658E1,1E0,7.827308E1,6.942614E1,7.452934E1,-5.662982E-1,-1.551262E-1,-1.5758859E-1,1.2633084E-1,2.3975944E-2,-2.8728434E-1,1.5423167E-1,4.0996796E-3],"split_indices":[9,15,21,2,19,19,21,0,0,0,0,0,0,0,0],"split_type":[0,0,0,0,0,0,0,0,0,0,0,0,0,0,0],"sum_hessian":[5.85E2,3.9E1,5.46E2,3E0,3.6E1,1.7E1,5.29E2,2E0,1E0,2.6E1,1E1,7E0,1E1,3.8E1,4.91E2],"tree_param":{"num_deleted":"0","num_feature":"22","num_nodes":"15","size_leaf_vector":"1"}},{"base_weights":[1.4470136E-3,-3.398996E-1,3.1064913E-1,-2.3805018E-1,-4.2634697E0,5.670959E-1,-8.045023E-1,-9.9263646E-2,1.5733404E-2,-4.9388696E-2,-6.967185E-1,-4.532605E-2,1.029761E-1,-4.7027358E-1,-2.6426887E-2],"categories":[],"categories_nodes":[],"categories_segments":[],"categories_sizes":[],"default_left":[0,0,0,0,0,0,0,0,0,0,0,0,0,0,0],"id":47,"left_children":[1,3,5,7,9,11,13,-1,-1,-1,-1,-1,-1,-1,-1],"loss_changes":[6.1955017E1,1.104772E2,8.853713E1,8.1606125E1,6.7902145E1,1.18959656E2,1.20902664E2,0E0,0E0,0E0,0E0,0E0,0E0,0E0,0E0],"parents":[2147483647,0,0,1,1,2,2,3,3,4,4,5,5,6,6],"right_children":[2,4,6,8,10,12,14,-1,-1,-1,-1,-1,-1,-1,-1],"split_conditions":[2.453216E1,2.448036E1,8.469318E1,4E0,1.610496E1,7.251617E1,6.6951614E1,-9.9263646E-2,1.5733404E-2,-4.9388696E-2,-6.967185E-1,-4.532605E-2,1.029761E-1,-4.7027358E-1,-2.6426887E-2],"split_indices":[9,9,19,12,13,20,18,0,0,0,0,0,0,0,0],"split_type":[0,0,0,0,0,0,0,0,0,0,0,0,0,0,0],"sum_hessian":[5.85E2,2.78E2,3.07E2,2.72E2,6E0,2.5E2,5.7E1,9.3E1,1.79E2,3E0,3E0,7.8E1,1.72E2,6E0,5.1E1],"tree_param":{"num_deleted":"0","num_feature":"22","num_nodes":"15","size_leaf_vector":"1"}},{"base_weights":[-8.610735E-4,-5.7120588E-2,1.7776124E0,-1.0725935E-1,2.4960327E0,2.7020552E0,-5.216153E-1,-6.5964274E-3,-3.354247E-1,4.7018893E-2,3.586488E-1,3.310339E-1,-4.290034E-2,-1.15200356E-1,1.3151626E-1],"categories":[],"categories_nodes":[],"categories_segments":[],"categories_sizes":[],"default_left":[0,0,0,0,0,0,0,0,0,0,0,0,0,0,0],"id":48,"left_children":[1,3,5,7,9,11,13,-1,-1,-1,-1,-1,-1,-1,-1],"loss_changes":[5.8734386E1,7.3106514E1,3.9668503E1,7.473202E1,2.2613678E1,2.617958E1,8.46237E0,0E0,0E0,0E0,0E0,0E0,0E0,0E0,0E0],"parents":[2147483647,0,0,1,1,2,2,3,3,4,4,5,5,6,6],"right_children":[2,4,6,8,10,12,14,-1,-1,-1,-1,-1,-1,-1,-1],"split_conditions":[8.00296E1,2.9927677E1,8.174553E1,9.455062E1,1.4196414E3,1E0,1E0,-6.5964274E-3,-3.354247E-1,4.7018893E-2,3.586488E-1,3.310339E-1,-4.290034E-2,-1.15200356E-1,1.3151626E-1],"split_indices":[21,9,18,20,11,5,3,0,0,0,0,0,0,0,0],"split_type":[0,0,0,0,0,0,0,0,0,0,0,0,0,0,0],"sum_hessian":[5.85E2,5.68E2,1.7E1,5.58E2,1E1,1.2E1,5E0,5.52E2,6E0,4E0,6E0,1E1,2E0,4E0,1E0],"tree_param":{"num_deleted":"0","num_feature":"22","num_nodes":"15","size_leaf_vector":"1"}},{"base_weights":[-1.4397553E-4,-3.0498514E-1,3.2068586E-1,-1.8301174E-1,-2.3318927E0,4.795137E-1,-1.5163246E0,-1.574202E-1,1.1708051E-3,-5.1367532E-2,-4.8559642E-1,1.3593443E-2,1.3598399E-1,2.2787145E-1,-2.6970974E-1],"categories":[],"categories_nodes":[],"categories_segments":[],"categories_sizes":[],"default_left":[0,0,0,0,0,0,0,0,0,0,0,0,0,0,0],"id":49,"left_children":[1,3,5,7,9,11,13,-1,-1,-1,-1,-1,-1,-1,-1],"loss_changes":[5.7409863E1,7.3989105E1,8.417287E1,7.722273E1,7.552389E1,7.966507E1,1.0921074E2,0E0,0E0,0E0,0E0,0E0,0E0,0E0,0E0],"parents":[2147483647,0,0,1,1,2,2,3,3,4,4,5,5,6,6],"right_children":[2,4,6,8,10,12,14,-1,-1,-1,-1,-1,-1,-1,-1],"split_conditions":[1E0,9.07251E1,5.616763E1,6.6202095E1,7.8586136E1,1.7E1,6.762811E1,-1.574202E-1,1.1708051E-3,-5.1367532E-2,-4.8559642E-1,1.3593443E-2,1.3598399E-1,2.2787145E-1,-2.6970974E-1],"split_indices":[0,20,10,18,19,14,18,0,0,0,0,0,0,0,0],"split_type":[0,0,0,0,0,0,0,0,0,0,0,0,0,0,0],"sum_hessian":[5.85E2,3E2,2.85E2,2.84E2,1.6E1,2.63E2,2.2E1,3.4E1,2.5E2,1E1,6E0,1.9E2,7.3E1,5E0,1.7E1],"tree_param":{"num_deleted":"0","num_feature":"22","num_nodes":"15","size_leaf_vector":"1"}},{"base_weights":[-1.1284604E-3,-2.0449545E0,4.5162246E-2,-3.9513612E0,8.377469E-1,-6.196534E-1,2.1855678E-1,-1.5733467E-1,-5.936039E-1,1.4525421E-1,-1.1181145E-1,-7.676135E-2,3.8261014E-1,2.582442E-1,1.0419865E-2],"categories":[],"categories_nodes":[],"categories_segments":[],"categories_sizes":[],"default_left":[0,0,0,0,0,0,0,0,0,0,0,0,0,0,0],"id":50,"left_children":[1,3,5,7,9,11,13,-1,-1,-1,-1,-1,-1,-1,-1],"loss_changes":[5.5533897E1,7.475306E1,6.630351E1,2.841729E1,8.838833E0,8.121446E1,1.23001144E2,0E0,0E0,0E0,0E0,0E0,0E0,0E0,0E0],"parents":[2147483647,0,0,1,1,2,2,3,3,4,4,5,5,6,6],"right_children":[2,4,6,8,10,12,14,-1,-1,-1,-1,-1,-1,-1,-1],"split_conditions":[1.0165755E3,7.785171E1,6.4785366E0,4.18184E1,1E0,8.9632515E1,7.422181E0,-1.5733467E-1,-5.936039E-1,1.4525421E-1,-1.1181145E-1,-7.676135E-2,3.8261014E-1,2.582442E-1,1.0419865E-2],"split_indices":[11,21,13,10,8,19,13,0,0,0,0,0,0,0,0],"split_type":[0,0,0,0,0,0,0,0,0,0,0,0,0,0,0],"sum_hessian":[5.85E2,1.2E1,5.73E2,7E0,5E0,1.18E2,4.55E2,4E0,3E0,4E0,1E0,1.15E2,3E0,2E1,4.35E2],"tree_param":{"num_deleted":"0","num_feature":"22","num_nodes":"15","size_leaf_vector":"1"}},{"base_weights":[-1.2615061E-3,2.0270462E0,-4.719659E-2,2.9120197E0,5.0924045E-1,-2.4140441E0,-5.2219494E-3,1.1937994E-1,3.2857934E-1,1.19641624E-1,-1.3345147E-2,1.2944489E-2,-4.1312775E-1,-4.8400264E-2,2.1085659E-2],"categories":[],"categories_nodes":[],"categories_segments":[],"categories_sizes":[],"default_left":[0,0,0,0,0,0,0,0,0,0,0,0,0,0,0],"id":51,"left_children":[1,3,5,7,9,11,13,-1,-1,-1,-1,-1,-1,-1,-1],"loss_changes":[5.4693577E1,1.5978916E1,5.7012905E1,1.2152176E0,2.8095174E0,4.4212418E1,5.855369E1,0E0,0E0,0E0,0E0,0E0,0E0,0E0,0E0],"parents":[2147483647,0,0,1,1,2,2,3,3,4,4,5,5,6,6],"right_children":[2,4,6,8,10,12,14,-1,-1,-1,-1,-1,-1,-1,-1],"split_conditions":[3.0625189E1,8.129991E1,3.1229422E1,3.02492E1,2.299213E1,7.6765884E1,7.602158E1,1.1937994E-1,3.2857934E-1,1.19641624E-1,-1.3345147E-2,1.2944489E-2,-4.1312775E-1,-4.8400264E-2,2.1085659E-2],"split_indices":[10,18,10,10,9,21,21,0,0,0,0,0,0,0,0],"split_type":[0,0,0,0,0,0,0,0,0,0,0,0,0,0,0],"sum_hessian":[5.85E2,1.2E1,5.73E2,7E0,5E0,9E0,5.64E2,2E0,5E0,2E0,3E0,4E0,5E0,1.75E2,3.89E2],"tree_param":{"num_deleted":"0","num_feature":"22","num_nodes":"15","size_leaf_vector":"1"}},{"base_weights":[-9.202599E-4,3.189106E-1,-2.828195E-1,-7.6924765E-1,5.408518E-1,-1.3478239E0,1.6181041E-1,-2.507248E-1,2.9919406E-2,8.287232E-2,-6.223916E-2,-6.492891E-2,-3.540921E-1,9.715451E-2,-3.417608E-2],"categories":[],"categories_nodes":[],"categories_segments":[],"categories_sizes":[],"default_left":[0,0,0,0,0,0,0,0,0,0,0,0,0,0,0],"id":52,"left_children":[1,3,5,7,9,11,13,-1,-1,-1,-1,-1,-1,-1,-1],"loss_changes":[5.2924004E1,6.6830505E1,1.4796033E2,8.80269E1,7.719977E1,1.386407E2,9.04468E1,0E0,0E0,0E0,0E0,0E0,0E0,0E0,0E0],"parents":[2147483647,0,0,1,1,2,2,3,3,4,4,5,5,6,6],"right_children":[2,4,6,8,10,12,14,-1,-1,-1,-1,-1,-1,-1,-1],"split_conditions":[4.518328E1,2E0,4.9276768E1,7.2979E1,8.38911E1,4.8275784E1,5.2877422E1,-2.507248E-1,2.9919406E-2,8.287232E-2,-6.223916E-2,-6.492891E-2,-3.540921E-1,9.715451E-2,-3.417608E-2],"split_indices":[10,12,10,18,18,10,10,0,0,0,0,0,0,0,0],"split_type":[0,0,0,0,0,0,0,0,0,0,0,0,0,0,0],"sum_hessian":[5.85E2,2.74E2,3.11E2,4.6E1,2.28E2,9.1E1,2.2E2,1.7E1,2.9E1,1.83E2,4.5E1,7E1,2.1E1,8.4E1,1.36E2],"tree_param":{"num_deleted":"0","num_feature":"22","num_nodes":"15","size_leaf_vector":"1"}},{"base_weights":[-1.776002E-3,-1.9364527E0,4.2043813E-2,-5.271373E-1,-4.088394E-1,-4.9620826E-4,2.2193644E0,9.4816744E-2,-1.4715385E-1,-6.765016E-2,1.4488237E-2,2.6134333E-1,-8.606606E-2],"categories":[],"categories_nodes":[],"categories_segments":[],"categories_sizes":[],"default_left":[0,0,0,0,0,0,0,0,0,0,0,0,0],"id":53,"left_children":[1,3,5,-1,7,9,11,-1,-1,-1,-1,-1,-1],"loss_changes":[4.9760838E1,6.407294E1,5.316686E1,0E0,1.5816165E1,5.5526077E1,1.560043E1,0E0,0E0,0E0,0E0,0E0,0E0],"parents":[2147483647,0,0,1,1,2,2,4,4,5,5,6,6],"right_children":[2,4,6,-1,8,10,12,-1,-1,-1,-1,-1,-1],"split_conditions":[1.0165755E3,7.5433655E1,2.9927677E1,-5.271373E-1,7.703777E1,2E0,1E0,9.4816744E-2,-1.4715385E-1,-6.765016E-2,1.4488237E-2,2.6134333E-1,-8.606606E-2],"split_indices":[11,21,9,0,20,12,5,0,0,0,0,0,0],"split_type":[0,0,0,0,0,0,0,0,0,0,0,0,0],"sum_hessian":[5.85E2,1.2E1,5.73E2,3E0,9E0,5.63E2,1E1,4E0,5E0,9.9E1,4.64E2,9E0,1E0],"tree_param":{"num_deleted":"0","num_feature":"22","num_nodes":"13","size_leaf_vector":"1"}},{"base_weights":[-2.3789324E-3,-6.0910296E-1,1.2826636E-1,-2.6271722E0,-3.1732032E-1,1.5258664E0,6.143635E-2,-4.2103052E-1,1.9874536E-1,-1.713648E-1,2.5871247E-2,2.6224772E-4,4.1912156E-1,-1.5379198E-1,1.681642E-2],"categories":[],"categories_nodes":[],"categories_segments":[],"categories_sizes":[],"default_left":[0,0,0,0,0,0,0,0,0,0,0,0,0,0,0],"id":54,"left_children":[1,3,5,7,9,11,13,-1,-1,-1,-1,-1,-1,-1,-1],"loss_changes":[4.6527798E1,6.0405457E1,4.5019245E1,1.0334014E2,7.444174E1,8.930851E1,7.912011E1,0E0,0E0,0E0,0E0,0E0,0E0,0E0,0E0],"parents":[2147483647,0,0,1,1,2,2,3,3,4,4,5,5,6,6],"right_children":[2,4,6,8,10,12,14,-1,-1,-1,-1,-1,-1,-1,-1],"split_conditions":[2.1841436E1,4E0,6.3290287E1,1E0,7.210407E1,1.4994136E1,6.615E1,-4.2103052E-1,1.9874536E-1,-1.713648E-1,2.5871247E-2,2.6224772E-4,4.1912156E-1,-1.5379198E-1,1.681642E-2],"split_indices":[9,15,18,0,18,13,18,0,0,0,0,0,0,0,0],"split_type":[0,0,0,0,0,0,0,0,0,0,0,0,0,0,0],"sum_hessian":[5.85E2,1.03E2,4.82E2,1.2E1,9.1E1,2.1E1,4.61E2,9E0,3E0,2.6E1,6.5E1,1.4E1,7E0,2.8E1,4.33E2],"tree_param":{"num_deleted":"0","num_feature":"22","num_nodes":"15","size_leaf_vector":"1"}},{"base_weights":[-2.2857457E-3,-5.1729817E-2,1.5608232E0,-3.5900125E-1,2.6006746E-1,1.6773649E-2,2.7943854E0,-4.833133E-2,2.298293E-1,-3.847069E-2,4.944078E-2,-1.0468151E-1,2.4928895E-1,9.819501E-2,4.410431E-1],"categories":[],"categories_nodes":[],"categories_segments":[],"categories_sizes":[],"default_left":[0,0,0,0,0,0,0,0,0,0,0,0,0,0,0],"id":55,"left_children":[1,3,5,7,9,11,13,-1,-1,-1,-1,-1,-1,-1,-1],"loss_changes":[4.537061E1,5.46072E1,3.4237396E1,9.591658E1,4.2950546E1,2.631171E1,2.4958954E1,0E0,0E0,0E0,0E0,0E0,0E0,0E0,0E0],"parents":[2147483647,0,0,1,1,2,2,3,3,4,4,5,5,6,6],"right_children":[2,4,6,8,10,12,14,-1,-1,-1,-1,-1,-1,-1,-1],"split_conditions":[8.00296E1,1E0,1.5122463E1,2.765707E1,7.177872E1,2E1,7.140115E1,-4.833133E-2,2.298293E-1,-3.847069E-2,4.944078E-2,-1.0468151E-1,2.4928895E-1,9.819501E-2,4.410431E-1],"split_indices":[21,1,13,13,19,14,20,0,0,0,0,0,0,0,0],"split_type":[0,0,0,0,0,0,0,0,0,0,0,0,0,0,0],"sum_hessian":[5.85E2,5.68E2,1.7E1,2.86E2,2.82E2,8E0,9E0,2.74E2,1.2E1,7.5E1,2.07E2,6E0,2E0,5E0,4E0],"tree_param":{"num_deleted":"0","num_feature":"22","num_nodes":"15","size_leaf_vector":"1"}},{"base_weights":[-5.6092325E-4,7.9391646E-1,-9.948902E-2,1.4616638E0,-1.3424141E0,-4.5566604E-1,2.5031906E-1,-6.5922305E-2,2.0083661E-1,-3.025626E-1,1.2539476E-1,-9.32343E-2,5.310884E-2,-7.6620094E-2,4.8555482E-2],"categories":[],"categories_nodes":[],"categories_segments":[],"categories_sizes":[],"default_left":[0,0,0,0,0,0,0,0,0,0,0,0,0,0,0],"id":56,"left_children":[1,3,5,7,9,11,13,-1,-1,-1,-1,-1,-1,-1,-1],"loss_changes":[4.6136322E1,9.468657E1,6.515192E1,5.9298653E1,7.3717606E1,1.22319214E2,6.350019E1,0E0,0E0,0E0,0E0,0E0,0E0,0E0,0E0],"parents":[2147483647,0,0,1,1,2,2,3,3,4,4,5,5,6,6],"right_children":[2,4,6,8,10,12,14,-1,-1,-1,-1,-1,-1,-1,-1],"split_conditions":[6.6269325E1,2.1794893E1,1E0,2.2091469E1,1.3E1,2.088179E1,7.177872E1,-6.5922305E-2,2.0083661E-1,-3.025626E-1,1.2539476E-1,-9.32343E-2,5.310884E-2,-7.6620094E-2,4.8555482E-2],"split_indices":[19,13,1,9,15,13,19,0,0,0,0,0,0,0,0],"split_type":[0,0,0,0,0,0,0,0,0,0,0,0,0,0,0],"sum_hessian":[5.85E2,6.4E1,5.21E2,4.9E1,1.5E1,2.58E2,2.63E2,1E1,3.9E1,9E0,6E0,1.74E2,8.4E1,4.9E1,2.14E2],"tree_param":{"num_deleted":"0","num_feature":"22","num_nodes":"15","size_leaf_vector":"1"}},{"base_weights":[-6.931943E-4,1.9732902E0,-3.838959E-2,6.826782E-1,2.9350206E-1,-1.3717723E-1,6.894729E-1,1.0841294E-1,-8.014933E-3,9.404092E-2,-2.3884742E-2,3.2541584E-2,3.8674906E-1],"categories":[],"categories_nodes":[],"categories_segments":[],"categories_sizes":[],"default_left":[0,0,0,0,0,0,0,0,0,0,0,0,0],"id":57,"left_children":[1,3,5,7,-1,9,11,-1,-1,-1,-1,-1,-1],"loss_changes":[4.3681217E1,1.1649754E1,4.1511185E1,1.92432E0,0E0,5.5880283E1,7.857306E1,0E0,0E0,0E0,0E0,0E0,0E0],"parents":[2147483647,0,0,1,1,2,2,3,3,5,5,6,6],"right_children":[2,4,6,8,-1,10,12,-1,-1,-1,-1,-1,-1],"split_conditions":[3.0521685E1,3.02492E1,2.9073275E1,1.836425E3,2.9350206E-1,2E0,1E0,1.0841294E-1,-8.014933E-3,9.404092E-2,-2.3884742E-2,3.2541584E-2,3.8674906E-1],"split_indices":[10,10,9,11,0,14,7,0,0,0,0,0,0],"split_type":[0,0,0,0,0,0,0,0,0,0,0,0,0],"sum_hessian":[5.85E2,1E1,5.75E2,5E0,5E0,5.07E2,6.8E1,3E0,2E0,4.3E1,4.64E2,6.2E1,6E0],"tree_param":{"num_deleted":"0","num_feature":"22","num_nodes":"13","size_leaf_vector":"1"}},{"base_weights":[8.861034E-4,-1.7957866E0,4.1575756E-2,-4.7174978E-1,-4.475235E-1,1.6245914E0,-6.726829E-3,6.136945E-2,-1.6314805E-1,3.07097E-1,-1.538931E-1,-1.6415071E-1,5.7096803E-3],"categories":[],"categories_nodes":[],"categories_segments":[],"categories_sizes":[],"default_left":[0,0,0,0,0,0,0,0,0,0,0,0,0],"id":58,"left_children":[1,3,5,-1,7,9,11,-1,-1,-1,-1,-1,-1],"loss_changes":[4.2914764E1,4.909887E1,4.390112E1,0E0,1.3565594E1,8.251207E1,5.831411E1,0E0,0E0,0E0,0E0,0E0,0E0],"parents":[2147483647,0,0,1,1,2,2,4,4,5,5,6,6],"right_children":[2,4,6,-1,8,10,12,-1,-1,-1,-1,-1,-1],"split_conditions":[1.0165755E3,7.5433655E1,1.042072E3,-4.7174978E-1,1.008281E3,7.791203E1,7.3375374E1,6.136945E-2,-1.6314805E-1,3.07097E-1,-1.538931E-1,-1.6415071E-1,5.7096803E-3],"split_indices":[11,21,11,0,11,18,21,0,0,0,0,0,0],"split_type":[0,0,0,0,0,0,0,0,0,0,0,0,0],"sum_hessian":[5.85E2,1.2E1,5.73E2,3E0,9E0,1.6E1,5.57E2,5E0,4E0,1.1E1,5E0,2E1,5.37E2],"tree_param":{"num_deleted":"0","num_feature":"22","num_nodes":"13","size_leaf_vector":"1"}},{"base_weights":[-1.8749302E-4,2.42936E-1,-2.7791548E-1,1.5586734E-1,2.8655295E0,-2.1095588E0,1.5044047E-1,2.9816538E-2,-2.8130326E-1,3.8064924E-1,5.024624E-2,9.210587E-3,-3.2778552E-1,1.7589952E-4,2.2120397E-1],"categories":[],"categories_nodes":[],"categories_segments":[],"categories_sizes":[],"default_left":[0,0,0,0,0,0,0,0,0,0,0,0,0,0,0],"id":59,"left_children":[1,3,5,7,9,11,13,-1,-1,-1,-1,-1,-1,-1,-1],"loss_changes":[3.963552E1,7.1025566E1,2.152965E2,1.2926924E2,2.0322968E1,1.3405615E2,6.835043E1,0E0,0E0,0E0,0E0,0E0,0E0,0E0,0E0],"parents":[2147483647,0,0,1,1,2,2,3,3,4,4,5,5,6,6],"right_children":[2,4,6,8,10,12,14,-1,-1,-1,-1,-1,-1,-1,-1],"split_conditions":[4.6863194E1,9.294947E1,4.91061E1,8.832121E1,9.4627846E1,7.159494E1,2.723631E1,2.9816538E-2,-2.8130326E-1,3.8064924E-1,5.024624E-2,9.210587E-3,-3.2778552E-1,1.7589952E-4,2.2120397E-1],"split_indices":[10,19,10,19,19,18,13,0,0,0,0,0,0,0,0],"split_type":[0,0,0,0,0,0,0,0,0,0,0,0,0,0,0],"sum_hessian":[5.85E2,3.12E2,2.73E2,3.03E2,9E0,5.1E1,2.22E2,2.9E2,1.3E1,6E0,3E0,1.8E1,3.3E1,2.08E2,1.4E1],"tree_param":{"num_deleted":"0","num_feature":"22","num_nodes":"15","size_leaf_vector":"1"}},{"base_weights":[-2.763377E-5,-3.3137193E-1,1.9715832E-1,1.1310384E0,-5.605348E-1,1.7334052E0,6.554561E-2,2.847266E-2,3.0741298E-1,-1.8988512E-1,-2.5667831E-2,5.623277E-2,3.1314757E-1,1.3022884E-2,-2.635087E-1],"categories":[],"categories_nodes":[],"categories_segments":[],"categories_sizes":[],"default_left":[0,0,0,0,0,0,0,0,0,0,0,0,0,0,0],"id":60,"left_children":[1,3,5,7,9,11,13,-1,-1,-1,-1,-1,-1,-1,-1],"loss_changes":[3.8352486E1,7.402747E1,7.429217E1,4.8458546E1,7.677726E1,4.57193E1,5.9736282E1,0E0,0E0,0E0,0E0,0E0,0E0,0E0,0E0],"parents":[2147483647,0,0,1,1,2,2,3,3,4,4,5,5,6,6],"right_children":[2,4,6,8,10,12,14,-1,-1,-1,-1,-1,-1,-1,-1],"split_conditions":[4E0,6.6951614E1,2E0,2.7909832E1,6.538047E0,7.99385E1,5.9356823E1,2.847266E-2,3.0741298E-1,-1.8988512E-1,-2.5667831E-2,5.623277E-2,3.1314757E-1,1.3022884E-2,-2.635087E-1],"split_indices":[12,19,14,9,13,19,10,0,0,0,0,0,0,0,0],"split_type":[0,0,0,0,0,0,0,0,0,0,0,0,0,0,0],"sum_hessian":[5.85E2,2.18E2,3.67E2,2.9E1,1.89E2,2.8E1,3.39E2,2.1E1,8E0,3.4E1,1.55E2,1.6E1,1.2E1,3.32E2,7E0],"tree_param":{"num_deleted":"0","num_feature":"22","num_nodes":"15","size_leaf_vector":"1"}},{"base_weights":[3.825373E-4,-1.6966641E0,3.8816724E-2,-3.1102352E0,4.708748E-1,1.9935716E-3,1.9233114E0,-1.14370726E-1,-4.7908363E-1,-6.7799635E-2,1.2148094E-1,3.0862456E-3,-2.6879567E-1,2.590274E-1,1.0855866E-2],"categories":[],"categories_nodes":[],"categories_segments":[],"categories_sizes":[],"default_left":[0,0,0,0,0,0,0,0,0,0,0,0,0,0,0],"id":61,"left_children":[1,3,5,7,9,11,13,-1,-1,-1,-1,-1,-1,-1,-1],"loss_changes":[3.828748E1,4.1296146E1,3.982777E1,2.0960274E1,5.951746E0,4.3880863E1,1.303289E1,0E0,0E0,0E0,0E0,0E0,0E0,0E0,0E0],"parents":[2147483647,0,0,1,1,2,2,3,3,4,4,5,5,6,6],"right_children":[2,4,6,8,10,12,14,-1,-1,-1,-1,-1,-1,-1,-1],"split_conditions":[1.0165755E3,7.785171E1,2.9927677E1,4.18184E1,4E0,9.4627846E1,7.823412E1,-1.14370726E-1,-4.7908363E-1,-6.7799635E-2,1.2148094E-1,3.0862456E-3,-2.6879567E-1,2.590274E-1,1.0855866E-2],"split_indices":[11,21,9,10,12,20,21,0,0,0,0,0,0,0,0],"split_type":[0,0,0,0,0,0,0,0,0,0,0,0,0,0,0],"sum_hessian":[5.85E2,1.2E1,5.73E2,7E0,5E0,5.63E2,1E1,4E0,3E0,2E0,3E0,5.58E2,5E0,7E0,3E0],"tree_param":{"num_deleted":"0","num_feature":"22","num_nodes":"15","size_leaf_vector":"1"}},{"base_weights":[-5.7311595E-4,-1.6707479E0,3.725414E-2,-2.7166994E0,2.7213237E-1,-2.0274831E-1,2.8822735E-1,-3.4679286E-2,-3.2048127E-1,1.900919E-4,-1.2782858E-1,2.2521435E-1,1.690135E-2],"categories":[],"categories_nodes":[],"categories_segments":[],"categories_sizes":[],"default_left":[0,0,0,0,0,0,0,0,0,0,0,0,0],"id":62,"left_children":[1,3,5,7,-1,9,11,-1,-1,-1,-1,-1,-1],"loss_changes":[3.708463E1,6.711363E1,3.463286E1,1.1613205E1,0E0,6.471416E1,6.540877E1,0E0,0E0,0E0,0E0,0E0,0E0],"parents":[2147483647,0,0,1,1,2,2,3,3,5,5,6,6],"right_children":[2,4,6,8,-1,10,12,-1,-1,-1,-1,-1,-1],"split_conditions":[2.026764E1,9E0,1E0,1.1817465E3,2.7213237E-1,8.545715E1,6.3582138E1,-3.4679286E-2,-3.2048127E-1,1.900919E-4,-1.2782858E-1,2.2521435E-1,1.690135E-2],"split_indices":[9,12,0,11,0,20,18,0,0,0,0,0,0],"split_type":[0,0,0,0,0,0,0,0,0,0,0,0,0],"sum_hessian":[5.85E2,1.2E1,5.73E2,1E1,2E0,2.93E2,2.8E2,2E0,8E0,2.47E2,4.6E1,1.5E1,2.65E2],"tree_param":{"num_deleted":"0","num_feature":"22","num_nodes":"13","size_leaf_vector":"1"}},{"base_weights":[-4.6122033E-4,-4.349792E-2,1.3600023E0,-1.9011492E0,-3.470479E-3,-5.8295354E-2,2.50047E0,-4.0978375E-1,-7.136044E-2,-4.096944E-3,2.0555694E-1,-9.860655E-2,2.1259335E-1,7.5983554E-2,4.089137E-1],"categories":[],"categories_nodes":[],"categories_segments":[],"categories_sizes":[],"default_left":[0,0,0,0,0,0,0,0,0,0,0,0,0,0,0],"id":63,"left_children":[1,3,5,7,9,11,13,-1,-1,-1,-1,-1,-1,-1,-1],"loss_changes":[3.4369377E1,4.230255E1,2.926117E1,2.8379757E1,4.316843E1,2.0334469E1,2.4545822E1,0E0,0E0,0E0,0E0,0E0,0E0,0E0,0E0],"parents":[2147483647,0,0,1,1,2,2,3,3,4,4,5,5,6,6],"right_children":[2,4,6,8,10,12,14,-1,-1,-1,-1,-1,-1,-1,-1],"split_conditions":[8.00296E1,1.0165755E3,1.5122463E1,7.5433655E1,2.9927677E1,2E1,6E0,-4.0978375E-1,-7.136044E-2,-4.096944E-3,2.0555694E-1,-9.860655E-2,2.1259335E-1,7.5983554E-2,4.089137E-1],"split_indices":[21,11,13,21,9,14,12,0,0,0,0,0,0,0,0],"split_type":[0,0,0,0,0,0,0,0,0,0,0,0,0,0,0],"sum_hessian":[5.85E2,5.68E2,1.7E1,1.1E1,5.57E2,8E0,9E0,3E0,8E0,5.48E2,9E0,6E0,2E0,5E0,4E0],"tree_param":{"num_deleted":"0","num_feature":"22","num_nodes":"15","size_leaf_vector":"1"}},{"base_weights":[1.2964112E-4,1.7120965E0,-3.2564394E-2,5.959117E-1,2.5429317E-1,-1.7408362E-1,4.0527213E-1,9.628449E-2,-9.196981E-3,1.0813965E-2,-1.2020464E-1,1.9807081E-1,-1.5374127E-2],"categories":[],"categories_nodes":[],"categories_segments":[],"categories_sizes":[],"default_left":[0,0,0,0,0,0,0,0,0,0,0,0,0],"id":64,"left_children":[1,3,5,7,-1,9,11,-1,-1,-1,-1,-1,-1],"loss_changes":[3.285482E1,8.685661E0,3.5760826E1,1.602992E0,0E0,1.2662013E2,1.2448178E2,0E0,0E0,0E0,0E0,0E0,0E0],"parents":[2147483647,0,0,1,1,2,2,3,3,5,5,6,6],"right_children":[2,4,6,8,-1,10,12,-1,-1,-1,-1,-1,-1],"split_conditions":[3.0521685E1,3.02492E1,1.7482362E3,1.836425E3,2.5429317E-1,1.6002225E3,3.8216106E1,9.628449E-2,-9.196981E-3,1.0813965E-2,-1.2020464E-1,1.9807081E-1,-1.5374127E-2],"split_indices":[10,10,11,11,0,11,10,0,0,0,0,0,0],"split_type":[0,0,0,0,0,0,0,0,0,0,0,0,0],"sum_hessian":[5.85E2,1E1,5.75E2,5E0,5E0,4.35E2,1.4E2,3E0,2E0,3.42E2,9.3E1,3.6E1,1.04E2],"tree_param":{"num_deleted":"0","num_feature":"22","num_nodes":"13","size_leaf_vector":"1"}},{"base_weights":[8.251659E-4,-1.6769023E-1,3.2689834E-1,7.1646297E-1,-3.4509662E-1,1.4366013E0,-9.3379475E-2,-4.8715122E-2,1.2622282E-1,-4.2484127E-2,2.8479537E-1,-1.0130896E-1,2.0720486E-1,3.8457236E-1,-2.6033862E-2],"categories":[],"categories_nodes":[],"categories_segments":[],"categories_sizes":[],"default_left":[0,0,0,0,0,0,0,0,0,0,0,0,0,0,0],"id":65,"left_children":[1,3,5,7,9,11,13,-1,-1,-1,-1,-1,-1,-1,-1],"loss_changes":[3.2254547E1,6.0949913E1,9.341084E1,4.331279E1,8.345499E1,8.771492E1,9.7020905E1,0E0,0E0,0E0,0E0,0E0,0E0,0E0,0E0],"parents":[2147483647,0,0,1,1,2,2,3,3,4,4,5,5,6,6],"right_children":[2,4,6,8,10,12,14,-1,-1,-1,-1,-1,-1,-1,-1],"split_conditions":[7E0,6.856086E1,7E0,1E1,9.367537E1,2.1992943E1,6.3582138E1,-4.8715122E-2,1.2622282E-1,-4.2484127E-2,2.8479537E-1,-1.0130896E-1,2.0720486E-1,3.8457236E-1,-2.6033862E-2],"split_indices":[12,19,14,15,20,9,18,0,0,0,0,0,0,0,0],"split_type":[0,0,0,0,0,0,0,0,0,0,0,0,0,0,0],"sum_hessian":[5.85E2,3.86E2,1.99E2,6.4E1,3.22E2,5.4E1,1.45E2,2E1,4.4E1,3.15E2,7E0,1.1E1,4.3E1,5E0,1.4E2],"tree_param":{"num_deleted":"0","num_feature":"22","num_nodes":"15","size_leaf_vector":"1"}},{"base_weights":[2.0784307E-3,-1.3522166E0,4.246604E-2,2.6200188E-2,-2.580387E0,8.9069384E-1,-3.3696502E-2,5.6496102E-2,-1.2396418E-1,-6.22345E-2,-3.0509213E-1,-4.2298195E-1,1.335952E-1,-6.800162E-2,1.5582504E-2],"categories":[],"categories_nodes":[],"categories_segments":[],"categories_sizes":[],"default_left":[0,0,0,0,0,0,0,0,0,0,0,0,0,0,0],"id":66,"left_children":[1,3,5,7,9,11,13,-1,-1,-1,-1,-1,-1,-1,-1],"loss_changes":[3.210971E1,2.8847433E1,3.6853832E1,6.8382244E0,6.3932076E0,1.1280849E2,6.4291504E1,0E0,0E0,0E0,0E0,0E0,0E0,0E0,0E0],"parents":[2147483647,0,0,1,1,2,2,3,3,4,4,5,5,6,6],"right_children":[2,4,6,8,10,12,14,-1,-1,-1,-1,-1,-1,-1,-1],"split_conditions":[7.311634E1,7.320687E1,7.452934E1,1.7E1,1.1383768E3,4E0,7.602158E1,5.6496102E-2,-1.2396418E-1,-6.22345E-2,-3.0509213E-1,-4.2298195E-1,1.335952E-1,-6.800162E-2,1.5582504E-2],"split_indices":[21,19,21,14,11,15,21,0,0,0,0,0,0,0,0],"split_type":[0,0,0,0,0,0,0,0,0,0,0,0,0,0,0],"sum_hessian":[5.85E2,1.6E1,5.69E2,8E0,8E0,4.6E1,5.23E2,6E0,2E0,2E0,6E0,3E0,4.3E1,1.18E2,4.05E2],"tree_param":{"num_deleted":"0","num_feature":"22","num_nodes":"15","size_leaf_vector":"1"}},{"base_weights":[5.4718775E-4,-4.621721E-1,1.1944605E-1,-1.7495976E-1,-2.192049E0,2.345661E0,1.45915495E-2,-5.8300238E-2,1.8069662E-1,4.3341447E-2,-3.3221102E-1,3.0247933E-1,-2.7373964E-1,-1.5193147E-2,1.0911971E-1],"categories":[],"categories_nodes":[],"categories_segments":[],"categories_sizes":[],"default_left":[0,0,0,0,0,0,0,0,0,0,0,0,0,0,0],"id":67,"left_children":[1,3,5,7,9,11,13,-1,-1,-1,-1,-1,-1,-1,-1],"loss_changes":[3.2295044E1,5.923752E1,1.08976944E2,8.515933E1,5.187774E1,8.077347E1,8.030377E1,0E0,0E0,0E0,0E0,0E0,0E0,0E0,0E0],"parents":[2147483647,0,0,1,1,2,2,3,3,4,4,5,5,6,6],"right_children":[2,4,6,8,10,12,14,-1,-1,-1,-1,-1,-1,-1,-1],"split_conditions":[6.4785366E0,1.8686315E3,7.422181E0,1.7350804E3,6E0,2.9073275E1,1E0,-5.8300238E-2,1.8069662E-1,4.3341447E-2,-3.3221102E-1,3.0247933E-1,-2.7373964E-1,-1.5193147E-2,1.0911971E-1],"split_indices":[13,11,13,11,15,9,6,0,0,0,0,0,0,0,0],"split_type":[0,0,0,0,0,0,0,0,0,0,0,0,0,0,0],"sum_hessian":[5.85E2,1.19E2,4.66E2,1.03E2,1.6E1,2E1,4.46E2,8.6E1,1.7E1,5E0,1.1E1,1.8E1,2E0,3.87E2,5.9E1],"tree_param":{"num_deleted":"0","num_feature":"22","num_nodes":"15","size_leaf_vector":"1"}},{"base_weights":[4.159387E-4,-2.3501699E-1,2.1368013E-1,-1.5119198E-1,-3.4706187E0,-3.1542647E-1,6.229658E-1,5.467982E-3,-1.0704738E-1,6.3351184E-2,-5.2389735E-1,-1.6544375E-1,3.464515E-3,2.7690345E-1,4.1787837E-2],"categories":[],"categories_nodes":[],"categories_segments":[],"categories_sizes":[],"default_left":[0,0,0,0,0,0,0,0,0,0,0,0,0,0,0],"id":68,"left_children":[1,3,5,7,9,11,13,-1,-1,-1,-1,-1,-1,-1,-1],"loss_changes":[2.9472935E1,7.514686E1,6.6895676E1,5.172493E1,5.4121864E1,6.333853E1,7.54258E1,0E0,0E0,0E0,0E0,0E0,0E0,0E0,0E0],"parents":[2147483647,0,0,1,1,2,2,3,3,4,4,5,5,6,6],"right_children":[2,4,6,8,10,12,14,-1,-1,-1,-1,-1,-1,-1,-1],"split_conditions":[2.453216E1,2.448036E1,7.607662E1,8.45861E1,4.241534E1,3.642624E1,7.693392E1,5.467982E-3,-1.0704738E-1,6.3351184E-2,-5.2389735E-1,-1.6544375E-1,3.464515E-3,2.7690345E-1,4.1787837E-2],"split_indices":[9,9,20,20,10,10,20,0,0,0,0,0,0,0,0],"split_type":[0,0,0,0,0,0,0,0,0,0,0,0,0,0,0],"sum_hessian":[5.85E2,2.78E2,3.07E2,2.72E2,6E0,1.34E2,1.73E2,2.23E2,4.9E1,2E0,4E0,2.7E1,1.07E2,1.4E1,1.59E2],"tree_param":{"num_deleted":"0","num_feature":"22","num_nodes":"15","size_leaf_vector":"1"}},{"base_weights":[-3.1766144E-4,-2.9295585E-1,1.7383474E-1,-5.3468424E-1,7.695401E-1,1.4906703E0,6.1005134E-2,-1.2745549E-1,-1.5092964E-2,1.4080895E-1,-1.6573122E-1,2.5312352E-1,1.5264659E-3,-1.13135755E-1,1.928596E-2],"categories":[],"categories_nodes":[],"categories_segments":[],"categories_sizes":[],"default_left":[0,0,0,0,0,0,0,0,0,0,0,0,0,0,0],"id":69,"left_children":[1,3,5,7,9,11,13,-1,-1,-1,-1,-1,-1,-1,-1],"loss_changes":[2.991562E1,5.6658417E1,5.4585777E1,5.0630882E1,6.586991E1,4.4483757E1,5.3672432E1,0E0,0E0,0E0,0E0,0E0,0E0,0E0,0E0],"parents":[2147483647,0,0,1,1,2,2,3,3,4,4,5,5,6,6],"right_children":[2,4,6,8,10,12,14,-1,-1,-1,-1,-1,-1,-1,-1],"split_conditions":[4E0,7.870289E1,2E0,7.243119E1,2.4872288E1,1.6289235E3,4E0,-1.2745549E-1,-1.5092964E-2,1.4080895E-1,-1.6573122E-1,2.5312352E-1,1.5264659E-3,-1.13135755E-1,1.928596E-2],"split_indices":[12,21,14,18,13,11,15,0,0,0,0,0,0,0,0],"split_type":[0,0,0,0,0,0,0,0,0,0,0,0,0,0,0],"sum_hessian":[5.85E2,2.18E2,3.67E2,1.78E2,4E1,2.8E1,3.39E2,6E1,1.18E2,3.2E1,8E0,1.6E1,1.2E1,3.3E1,3.06E2],"tree_param":{"num_deleted":"0","num_feature":"22","num_nodes":"15","size_leaf_vector":"1"}},{"base_weights":[-2.9793696E-4,8.469989E-2,-5.987717E-1,-2.4048068E-1,3.6379114E-1,-9.4813615E-1,3.4604874E0,-6.423356E-2,4.1572805E-2,-1.6652418E-2,8.339103E-2,-1.9873025E-1,1.4948015E-2,4.6166626E-1,-1.1601944E-1],"categories":[],"categories_nodes":[],"categories_segments":[],"categories_sizes":[],"default_left":[0,0,0,0,0,0,0,0,0,0,0,0,0,0,0],"id":70,"left_children":[1,3,5,7,9,11,13,-1,-1,-1,-1,-1,-1,-1,-1],"loss_changes":[2.9859934E1,4.673558E1,1.0680675E2,6.302779E1,6.919812E1,7.785826E1,3.7410133E1,0E0,0E0,0E0,0E0,0E0,0E0,0E0,0E0],"parents":[2147483647,0,0,1,1,2,2,3,3,4,4,5,5,6,6],"right_children":[2,4,6,8,10,12,14,-1,-1,-1,-1,-1,-1,-1,-1],"split_conditions":[8.658972E1,7.607662E1,2.7502861E1,6E0,2.4524153E1,1.5171686E3,1E0,-6.423356E-2,4.1572805E-2,-1.6652418E-2,8.339103E-2,-1.9873025E-1,1.4948015E-2,4.6166626E-1,-1.1601944E-1],"split_indices":[19,20,13,12,9,11,2,0,0,0,0,0,0,0,0],"split_type":[0,0,0,0,0,0,0,0,0,0,0,0,0,0,0],"sum_hessian":[5.85E2,5.13E2,7.2E1,2.37E2,2.76E2,6.7E1,5E0,1.47E2,9E1,1.3E2,1.46E2,3.4E1,3.3E1,4E0,1E0],"tree_param":{"num_deleted":"0","num_feature":"22","num_nodes":"15","size_leaf_vector":"1"}},{"base_weights":[8.398844E-5,-1.2801346E0,3.82658E-2,-9.675937E-2,-2.3212726E0,8.249727E-1,-3.2370634E-2,4.2965483E-2,-1.2928061E-1,-5.507304E-2,-2.748466E-1,1.6735746E-1,-1.5231843E-1,-5.9887927E-2,1.301634E-2],"categories":[],"categories_nodes":[],"categories_segments":[],"categories_sizes":[],"default_left":[0,0,0,0,0,0,0,0,0,0,0,0,0,0,0],"id":71,"left_children":[1,3,5,7,9,11,13,-1,-1,-1,-1,-1,-1,-1,-1],"loss_changes":[2.8693287E1,2.0720362E1,3.1701696E1,6.2220035E0,5.2936134E0,9.6203735E1,4.8326267E1,0E0,0E0,0E0,0E0,0E0,0E0,0E0,0E0],"parents":[2147483647,0,0,1,1,2,2,3,3,4,4,5,5,6,6],"right_children":[2,4,6,8,10,12,14,-1,-1,-1,-1,-1,-1,-1,-1],"split_conditions":[7.311634E1,7.320687E1,7.452934E1,1.7E1,1.1383768E3,4.809544E1,7.60057E1,4.2965483E-2,-1.2928061E-1,-5.507304E-2,-2.748466E-1,1.6735746E-1,-1.5231843E-1,-5.9887927E-2,1.301634E-2],"split_indices":[21,19,21,14,11,10,21,0,0,0,0,0,0,0,0],"split_type":[0,0,0,0,0,0,0,0,0,0,0,0,0,0,0],"sum_hessian":[5.85E2,1.6E1,5.69E2,8E0,8E0,4.6E1,5.23E2,6E0,2E0,2E0,6E0,3.4E1,1.2E1,1.16E2,4.07E2],"tree_param":{"num_deleted":"0","num_feature":"22","num_nodes":"15","size_leaf_vector":"1"}},{"base_weights":[-6.881102E-4,2.3319764E-2,-1.9898137E0,-3.5344698E-2,1.2746835E0,-3.9815846E-1,4.9941063E-1,7.988607E-3,-8.6177506E-2,3.2172975E-1,5.6987987E-3,-6.316859E-2,1.9463502E-1],"categories":[],"categories_nodes":[],"categories_segments":[],"categories_sizes":[],"default_left":[0,0,0,0,0,0,0,0,0,0,0,0,0],"id":72,"left_children":[1,3,5,7,9,-1,11,-1,-1,-1,-1,-1,-1],"loss_changes":[2.8030643E1,4.2623184E1,3.66942E1,5.2921604E1,6.131997E1,0E0,7.775995E0,0E0,0E0,0E0,0E0,0E0,0E0],"parents":[2147483647,0,0,1,1,2,2,3,3,4,4,6,6],"right_children":[2,4,6,8,10,-1,12,-1,-1,-1,-1,-1,-1],"split_conditions":[2.9565863E1,2.8049398E1,7.536944E1,8.658972E1,7.312302E1,-3.9815846E-1,2.3038633E1,7.988607E-3,-8.6177506E-2,3.2172975E-1,5.6987987E-3,-6.316859E-2,1.9463502E-1],"split_indices":[13,13,18,19,18,0,9,0,0,0,0,0,0],"split_type":[0,0,0,0,0,0,0,0,0,0,0,0,0],"sum_hessian":[5.85E2,5.79E2,6E0,5.54E2,2.5E1,3E0,3E0,4.87E2,6.7E1,9E0,1.6E1,2E0,1E0],"tree_param":{"num_deleted":"0","num_feature":"22","num_nodes":"13","size_leaf_vector":"1"}},{"base_weights":[-6.489933E-4,-4.2514637E-1,1.0843095E-1,-5.458102E-1,3.210558E-1,1.933623E0,9.527705E-3,-2.7282793E-2,-2.2519591E-1,2.7203497E-1,-1.6000077E-1,8.370024E-3,-1.6540001E-1],"categories":[],"categories_nodes":[],"categories_segments":[],"categories_sizes":[],"default_left":[0,0,0,0,0,0,0,0,0,0,0,0,0],"id":73,"left_children":[1,3,5,7,-1,9,11,-1,-1,-1,-1,-1,-1],"loss_changes":[2.718033E1,5.4396126E1,8.428321E1,5.3878162E1,0E0,7.10726E1,5.4922745E1,0E0,0E0,0E0,0E0,0E0,0E0],"parents":[2147483647,0,0,1,1,2,2,3,3,5,5,6,6],"right_children":[2,4,6,8,-1,10,12,-1,-1,-1,-1,-1,-1],"split_conditions":[6.4785366E0,8.9632515E1,7.6013193E0,1E0,3.210558E-1,2.8870705E1,2.3E1,-2.7282793E-2,-2.2519591E-1,2.7203497E-1,-1.6000077E-1,8.370024E-3,-1.6540001E-1],"split_indices":[13,19,13,8,0,9,14,0,0,0,0,0,0],"split_type":[0,0,0,0,0,0,0,0,0,0,0,0,0],"sum_hessian":[5.85E2,1.19E2,4.66E2,1.16E2,3E0,2.3E1,4.43E2,1.01E2,1.5E1,1.9E1,4E0,4.25E2,1.8E1],"tree_param":{"num_deleted":"0","num_feature":"22","num_nodes":"13","size_leaf_vector":"1"}},{"base_weights":[-5.434186E-4,-1.4196231E0,3.1596966E-2,-2.3475397E0,2.4559453E-1,-1.3592491E0,6.371334E-2,-2.6315448E-1,2.4625396E-2,-3.6546412E-1,-3.0516738E-2,2.9285774E-2,-1.7479448E-2],"categories":[],"categories_nodes":[],"categories_segments":[],"categories_sizes":[],"default_left":[0,0,0,0,0,0,0,0,0,0,0,0,0],"id":74,"left_children":[1,3,5,7,-1,9,11,-1,-1,-1,-1,-1,-1],"loss_changes":[2.6772179E1,5.251609E1,2.572657E1,8.751171E0,0E0,3.0338623E1,3.0766022E1,0E0,0E0,0E0,0E0,0E0,0E0],"parents":[2147483647,0,0,1,1,2,2,3,3,5,5,6,6],"right_children":[2,4,6,8,-1,10,12,-1,-1,-1,-1,-1,-1],"split_conditions":[2.026764E1,9E0,1.0165755E3,1E0,2.4559453E-1,7.5433655E1,1.2E1,-2.6315448E-1,2.4625396E-2,-3.6546412E-1,-3.0516738E-2,2.9285774E-2,-1.7479448E-2],"split_indices":[9,12,11,6,0,21,14,0,0,0,0,0,0],"split_type":[0,0,0,0,0,0,0,0,0,0,0,0,0],"sum_hessian":[5.85E2,1.2E1,5.73E2,1E1,2E0,1.2E1,5.61E2,9E0,1E0,3E0,9E0,2.86E2,2.75E2],"tree_param":{"num_deleted":"0","num_feature":"22","num_nodes":"13","size_leaf_vector":"1"}},{"base_weights":[-1.1345469E-3,1.5337739E0,-3.0445065E-2,1.9261755E0,-1.5468852E-1,-1.5675087E0,2.2544186E-3,9.661293E-2,2.245177E-1,-2.1266555E-2,-1.9367218E-3,-2.3677087E-1,1.6223273E-1,-2.0284627E-2,2.2709718E-2],"categories":[],"categories_nodes":[],"categories_segments":[],"categories_sizes":[],"default_left":[0,0,0,0,0,0,0,0,0,0,0,0,0,0,0],"id":75,"left_children":[1,3,5,7,9,11,13,-1,-1,-1,-1,-1,-1,-1,-1],"loss_changes":[2.6410229E1,7.586067E0,2.895398E1,5.8716965E-1,1.9417845E-2,3.4471268E1,2.6101267E1,0E0,0E0,0E0,0E0,0E0,0E0,0E0,0E0],"parents":[2147483647,0,0,1,1,2,2,3,3,4,4,5,5,6,6],"right_children":[2,4,6,8,10,12,14,-1,-1,-1,-1,-1,-1,-1,-1],"split_conditions":[3.0521685E1,1.836425E3,3.1229422E1,3.02492E1,1E0,2.9720491E1,1E0,9.661293E-2,2.245177E-1,-2.1266555E-2,-1.9367218E-3,-2.3677087E-1,1.6223273E-1,-2.0284627E-2,2.2709718E-2],"split_indices":[10,11,10,10,1,9,0,0,0,0,0,0,0,0,0],"split_type":[0,0,0,0,0,0,0,0,0,0,0,0,0,0,0],"sum_hessian":[5.85E2,1E1,5.75E2,8E0,2E0,1.1E1,5.64E2,3E0,5E0,1E0,1E0,9E0,2E0,2.95E2,2.69E2],"tree_param":{"num_deleted":"0","num_feature":"22","num_nodes":"15","size_leaf_vector":"1"}},{"base_weights":[-6.3618214E-4,-1.1191184E-1,3.7193593E-1,1.3123307E-1,-9.166977E-1,9.7692885E-2,2.5593674E0,-5.3149458E-2,5.0976988E-2,-7.359822E-2,-5.295769E-1,1.4846544E-1,-4.3928873E-2,4.0189004E-1,1.1398011E-1],"categories":[],"categories_nodes":[],"categories_segments":[],"categories_sizes":[],"default_left":[0,0,0,0,0,0,0,0,0,0,0,0,0,0,0],"id":76,"left_children":[1,3,5,7,9,11,13,-1,-1,-1,-1,-1,-1,-1,-1],"loss_changes":[2.4336134E1,8.856747E1,8.0734825E1,8.757259E1,7.919585E1,9.07697E1,2.6497818E1,0E0,0E0,0E0,0E0,0E0,0E0,0E0,0E0],"parents":[2147483647,0,0,1,1,2,2,3,3,4,4,5,5,6,6],"right_children":[2,4,6,8,10,12,14,-1,-1,-1,-1,-1,-1,-1,-1],"split_conditions":[1.7659213E3,1.6002225E3,1E0,2.3900948E1,9.141237E1,3.8216106E1,1.1E1,-5.3149458E-2,5.0976988E-2,-7.359822E-2,-5.295769E-1,1.4846544E-1,-4.3928873E-2,4.0189004E-1,1.1398011E-1],"split_indices":[11,11,3,9,19,10,15,0,0,0,0,0,0,0,0],"split_type":[0,0,0,0,0,0,0,0,0,0,0,0,0,0,0],"sum_hessian":[5.85E2,4.51E2,1.34E2,3.47E2,1.04E2,1.2E2,1.4E1,1.26E2,2.21E2,1.01E2,3E0,3.3E1,8.7E1,6E0,8E0],"tree_param":{"num_deleted":"0","num_feature":"22","num_nodes":"15","size_leaf_vector":"1"}},{"base_weights":[-5.480926E-4,-1.1517057E0,3.378564E-2,-7.614136E-2,-2.099303E0,1.3253437E-1,-4.3165872E-1,1.3821068E-1,-4.3118574E-2,-5.2894086E-2,-2.4724148E-1,1.1509378E-1,4.306002E-3,-1.9418098E-3,-1.7362782E-1],"categories":[],"categories_nodes":[],"categories_segments":[],"categories_sizes":[],"default_left":[0,0,0,0,0,0,0,0,0,0,0,0,0,0,0],"id":77,"left_children":[1,3,5,7,9,11,13,-1,-1,-1,-1,-1,-1,-1,-1],"loss_changes":[2.3199709E1,1.7166586E1,2.625557E1,5.25563E0,3.9655304E0,4.2868423E1,5.3748005E1,0E0,0E0,0E0,0E0,0E0,0E0,0E0,0E0],"parents":[2147483647,0,0,1,1,2,2,3,3,4,4,5,5,6,6],"right_children":[2,4,6,8,10,12,14,-1,-1,-1,-1,-1,-1,-1,-1],"split_conditions":[7.311634E1,7.320687E1,8.517992E1,1.1037506E3,1.1383768E3,7.452934E1,7.99385E1,1.3821068E-1,-4.3118574E-2,-5.2894086E-2,-2.4724148E-1,1.1509378E-1,4.306002E-3,-1.9418098E-3,-1.7362782E-1],"split_indices":[21,19,18,11,11,21,19,0,0,0,0,0,0,0,0],"split_type":[0,0,0,0,0,0,0,0,0,0,0,0,0,0,0],"sum_hessian":[5.85E2,1.6E1,5.69E2,8E0,8E0,4.7E2,9.9E1,1E0,7E0,2E0,6E0,3.7E1,4.33E2,7.6E1,2.3E1],"tree_param":{"num_deleted":"0","num_feature":"22","num_nodes":"15","size_leaf_vector":"1"}},{"base_weights":[-9.365212E-4,2.098438E-2,-1.817106E0,-3.1972684E-2,1.1506069E0,-3.6372605E-1,4.5732498E-1,6.9620195E-3,-7.605808E-2,4.0545274E-2,4.199164E-1,-5.9870403E-2,1.812706E-1],"categories":[],"categories_nodes":[],"categories_segments":[],"categories_sizes":[],"default_left":[0,0,0,0,0,0,0,0,0,0,0,0,0],"id":78,"left_children":[1,3,5,7,9,-1,11,-1,-1,-1,-1,-1,-1],"loss_changes":[2.3368006E1,3.4733253E1,3.0642122E1,4.1134827E1,5.7360207E1,0E0,6.8105607E0,0E0,0E0,0E0,0E0,0E0,0E0],"parents":[2147483647,0,0,1,1,2,2,3,3,4,4,6,6],"right_children":[2,4,6,8,10,-1,12,-1,-1,-1,-1,-1,-1],"split_conditions":[2.9565863E1,2.8049398E1,7.536944E1,8.658972E1,2E1,-3.6372605E-1,2.3038633E1,6.9620195E-3,-7.605808E-2,4.0545274E-2,4.199164E-1,-5.9870403E-2,1.812706E-1],"split_indices":[13,13,18,19,14,0,9,0,0,0,0,0,0],"split_type":[0,0,0,0,0,0,0,0,0,0,0,0,0],"sum_hessian":[5.85E2,5.79E2,6E0,5.54E2,2.5E1,3E0,3E0,4.87E2,6.7E1,2.1E1,4E0,2E0,1E0],"tree_param":{"num_deleted":"0","num_feature":"22","num_nodes":"13","size_leaf_vector":"1"}},{"base_weights":[-5.9145386E-4,-6.921431E-1,5.6826286E-2,-4.068778E0,-2.6347676E-1,2.2833574E0,-2.4015157E-2,-8.2344316E-2,-5.957854E-1,5.4111816E-2,-1.431206E-1,8.316002E-2,3.5067788E-1,-6.995808E-2,9.038798E-3],"categories":[],"categories_nodes":[],"categories_segments":[],"categories_sizes":[],"default_left":[0,0,0,0,0,0,0,0,0,0,0,0,0,0,0],"id":79,"left_children":[1,3,5,7,9,11,13,-1,-1,-1,-1,-1,-1,-1,-1],"loss_changes":[2.3307829E1,6.406321E1,9.7612656E1,2.574746E1,3.929596E1,3.0829872E1,4.0561527E1,0E0,0E0,0E0,0E0,0E0,0E0,0E0,0E0],"parents":[2147483647,0,0,1,1,2,2,3,3,4,4,5,5,6,6],"right_children":[2,4,6,8,10,12,14,-1,-1,-1,-1,-1,-1,-1,-1],"split_conditions":[7.418581E1,4E0,7.452934E1,1.1431052E3,2.5122614E1,2.4501785E1,7.558092E1,-8.2344316E-2,-5.957854E-1,5.4111816E-2,-1.431206E-1,8.316002E-2,3.5067788E-1,-6.995808E-2,9.038798E-3],"split_indices":[21,15,21,11,9,9,21,0,0,0,0,0,0,0,0],"split_type":[0,0,0,0,0,0,0,0,0,0,0,0,0,0,0],"sum_hessian":[5.85E2,4.4E1,5.41E2,4E0,4E1,1.8E1,5.23E2,2E0,2E0,2.4E1,1.6E1,9E0,9E0,7.5E1,4.48E2],"tree_param":{"num_deleted":"0","num_feature":"22","num_nodes":"15","size_leaf_vector":"1"}},{"base_weights":[-1.2063101E-3,-2.592582E-1,1.523659E-1,-2.0353454E-3,-1.0853002E0,-3.1022195E-2,7.923661E-1,-1.239682E-1,3.6927428E-2,9.270509E-2,-1.6478102E-1,4.1522436E-2,-4.3009132E-2,-8.1412345E-2,1.5112497E-1],"categories":[],"categories_nodes":[],"categories_segments":[],"categories_sizes":[],"default_left":[0,0,0,0,0,0,0,0,0,0,0,0,0,0,0],"id":80,"left_children":[1,3,5,7,9,11,13,-1,-1,-1,-1,-1,-1,-1,-1],"loss_changes":[2.3262445E1,4.6530224E1,4.3216156E1,7.76622E1,6.038993E1,5.128847E1,9.593041E1,0E0,0E0,0E0,0E0,0E0,0E0,0E0,0E0],"parents":[2147483647,0,0,1,1,2,2,3,3,4,4,5,5,6,6],"right_children":[2,4,6,8,10,12,14,-1,-1,-1,-1,-1,-1,-1,-1],"split_conditions":[4E0,2.3410276E1,2.2936054E1,6.538047E0,1E0,1.4E1,7.373515E1,-1.239682E-1,3.6927428E-2,9.270509E-2,-1.6478102E-1,4.1522436E-2,-4.3009132E-2,-8.1412345E-2,1.5112497E-1],"split_indices":[12,13,13,13,12,15,19,0,0,0,0,0,0,0,0],"split_type":[0,0,0,0,0,0,0,0,0,0,0,0,0,0,0],"sum_hessian":[5.85E2,2.18E2,3.67E2,1.67E2,5.1E1,2.86E2,8.1E1,3.8E1,1.29E2,1.1E1,4E1,1.35E2,1.51E2,2.5E1,5.6E1],"tree_param":{"num_deleted":"0","num_feature":"22","num_nodes":"15","size_leaf_vector":"1"}},{"base_weights":[-1.240076E-3,-3.6315463E-2,1.1076007E0,-1.5641295E0,-3.3941644E-3,-1.6430664E-1,2.1415572E0,-3.3993417E-1,-5.7468753E-2,-3.4472817E-3,1.7031632E-1,-1.042487E-1,1.9395499E-1,6.178627E-2,3.5416794E-1],"categories":[],"categories_nodes":[],"categories_segments":[],"categories_sizes":[],"default_left":[0,0,0,0,0,0,0,0,0,0,0,0,0,0,0],"id":81,"left_children":[1,3,5,7,9,11,13,-1,-1,-1,-1,-1,-1,-1,-1],"loss_changes":[2.2831533E1,2.8614038E1,2.4023619E1,1.983647E1,2.9653639E1,1.8650043E1,1.914531E1,0E0,0E0,0E0,0E0,0E0,0E0,0E0,0E0],"parents":[2147483647,0,0,1,1,2,2,3,3,4,4,5,5,6,6],"right_children":[2,4,6,8,10,12,14,-1,-1,-1,-1,-1,-1,-1,-1],"split_conditions":[8.00296E1,1.0165755E3,1.5122463E1,7.5433655E1,2.9927677E1,2E1,6E0,-3.3993417E-1,-5.7468753E-2,-3.4472817E-3,1.7031632E-1,-1.042487E-1,1.9395499E-1,6.178627E-2,3.5416794E-1],"split_indices":[21,11,13,21,9,14,12,0,0,0,0,0,0,0,0],"split_type":[0,0,0,0,0,0,0,0,0,0,0,0,0,0,0],"sum_hessian":[5.85E2,5.68E2,1.7E1,1.1E1,5.57E2,8E0,9E0,3E0,8E0,5.48E2,9E0,6E0,2E0,5E0,4E0],"tree_param":{"num_deleted":"0","num_feature":"22","num_nodes":"15","size_leaf_vector":"1"}},{"base_weights":[-6.4541295E-4,1.3927585E0,-2.7254436E-2,1.7494829E0,-1.4166768E-1,-1.435826E0,2.710366E-3,9.0156935E-2,2.0231782E-1,-1.8194199E-2,-3.0559541E-3,7.260568E-3,-2.9563588E-1,-8.190375E-2,5.1948605E-3],"categories":[],"categories_nodes":[],"categories_segments":[],"categories_sizes":[],"default_left":[0,0,0,0,0,0,0,0,0,0,0,0,0,0,0],"id":82,"left_children":[1,3,5,7,9,11,13,-1,-1,-1,-1,-1,-1,-1,-1],"loss_changes":[2.1765148E1,6.2688847E0,2.4315453E1,2.6459312E-1,7.864341E-3,2.7738081E1,2.2903248E1,0E0,0E0,0E0,0E0,0E0,0E0,0E0,0E0],"parents":[2147483647,0,0,1,1,2,2,3,3,4,4,5,5,6,6],"right_children":[2,4,6,8,10,12,14,-1,-1,-1,-1,-1,-1,-1,-1],"split_conditions":[3.0521685E1,1.836425E3,3.1229422E1,3.02492E1,1E0,3.0738403E1,1.5465924E0,9.0156935E-2,2.0231782E-1,-1.8194199E-2,-3.0559541E-3,7.260568E-3,-2.9563588E-1,-8.190375E-2,5.1948605E-3],"split_indices":[10,11,10,10,1,10,13,0,0,0,0,0,0,0,0],"split_type":[0,0,0,0,0,0,0,0,0,0,0,0,0,0,0],"sum_hessian":[5.85E2,1E1,5.75E2,8E0,2E0,1.1E1,5.64E2,3E0,5E0,1E0,1E0,6E0,5E0,3.1E1,5.33E2],"tree_param":{"num_deleted":"0","num_feature":"22","num_nodes":"15","size_leaf_vector":"1"}},{"base_weights":[-7.4179587E-4,-1.0558865E-1,3.503065E-1,1.0790146E-1,-8.121503E-1,1.0246135E-1,2.326237E0,-4.831078E-2,4.4551533E-2,-6.452822E-2,-4.8642483E-1,1.3466045E-1,-3.7939467E-2,2.4159089E-2,3.0623275E-1],"categories":[],"categories_nodes":[],"categories_segments":[],"categories_sizes":[],"default_left":[0,0,0,0,0,0,0,0,0,0,0,0,0,0,0],"id":83,"left_children":[1,3,5,7,9,11,13,-1,-1,-1,-1,-1,-1,-1,-1],"loss_changes":[2.1605486E1,6.826908E1,6.58745E1,6.965268E1,6.78586E1,7.305014E1,2.2277496E1,0E0,0E0,0E0,0E0,0E0,0E0,0E0,0E0],"parents":[2147483647,0,0,1,1,2,2,3,3,4,4,5,5,6,6],"right_children":[2,4,6,8,10,12,14,-1,-1,-1,-1,-1,-1,-1,-1],"split_conditions":[1.7659213E3,1.6002225E3,1E0,2.3900948E1,9.141237E1,3.8216106E1,7.207175E1,-4.831078E-2,4.4551533E-2,-6.452822E-2,-4.8642483E-1,1.3466045E-1,-3.7939467E-2,2.4159089E-2,3.0623275E-1],"split_indices":[11,11,3,9,19,10,19,0,0,0,0,0,0,0,0],"split_type":[0,0,0,0,0,0,0,0,0,0,0,0,0,0,0],"sum_hessian":[5.85E2,4.51E2,1.34E2,3.47E2,1.04E2,1.2E2,1.4E1,1.26E2,2.21E2,1.01E2,3E0,3.3E1,8.7E1,4E0,1E1],"tree_param":{"num_deleted":"0","num_feature":"22","num_nodes":"15","size_leaf_vector":"1"}},{"base_weights":[-8.839031E-4,-4.066092E-1,8.4445715E-2,-5.675791E-1,2.8297226E0,2.5198233E-1,-3.1799838E-1,-5.6151017E-3,-1.910366E-1,1.4709473E-3,4.701495E-1,-1.028537E-2,7.5497456E-2,-2.5088198E-3,-1.2936054E-1],"categories":[],"categories_nodes":[],"categories_segments":[],"categories_sizes":[],"default_left":[0,0,0,0,0,0,0,0,0,0,0,0,0,0,0],"id":84,"left_children":[1,3,5,7,9,11,13,-1,-1,-1,-1,-1,-1,-1,-1],"loss_changes":[2.0321884E1,5.4743195E1,3.2780827E1,6.719314E1,2.6276157E1,6.129621E1,4.0831974E1,0E0,0E0,0E0,0E0,0E0,0E0,0E0,0E0],"parents":[2147483647,0,0,1,1,2,2,3,3,4,4,5,5,6,6],"right_children":[2,4,6,8,10,12,14,-1,-1,-1,-1,-1,-1,-1,-1],"split_conditions":[2E0,9.187196E1,8.174553E1,1.6E1,2E0,7.863689E1,8.403169E1,-5.6151017E-3,-1.910366E-1,1.4709473E-3,4.701495E-1,-1.028537E-2,7.5497456E-2,-2.5088198E-3,-1.2936054E-1],"split_indices":[12,20,18,14,14,20,20,0,0,0,0,0,0,0,0],"split_type":[0,0,0,0,0,0,0,0,0,0,0,0,0,0,0],"sum_hessian":[5.85E2,1.01E2,4.84E2,9.7E1,4E0,3.42E2,1.42E2,7.1E1,2.6E1,2E0,2E0,2.01E2,1.41E2,1.1E2,3.2E1],"tree_param":{"num_deleted":"0","num_feature":"22","num_nodes":"15","size_leaf_vector":"1"}},{"base_weights":[-4.4048688E-4,-1.2194692E0,2.7168944E-2,-2.0745895E0,2.3224615E-1,-1.1767878E-1,2.7321452E-1,-2.337402E-1,2.7676774E-2,1.5243513E-2,-1.6611513E-1,8.998391E-2,-1.2589279E-2],"categories":[],"categories_nodes":[],"categories_segments":[],"categories_sizes":[],"default_left":[0,0,0,0,0,0,0,0,0,0,0,0,0],"id":85,"left_children":[1,3,5,7,-1,9,11,-1,-1,-1,-1,-1,-1],"loss_changes":[1.975595E1,4.4192253E1,2.0489017E1,7.4445457E0,0E0,1.5117586E2,5.3382545E1,0E0,0E0,0E0,0E0,0E0,0E0],"parents":[2147483647,0,0,1,1,2,2,3,3,5,5,6,6],"right_children":[2,4,6,8,-1,10,12,-1,-1,-1,-1,-1,-1],"split_conditions":[2.026764E1,9E0,4.9276768E1,8.302435E1,2.3224615E-1,4.6863194E1,5.2877422E1,-2.337402E-1,2.7676774E-2,1.5243513E-2,-1.6611513E-1,8.998391E-2,-1.2589279E-2],"split_indices":[9,12,10,20,0,10,10,0,0,0,0,0,0],"split_type":[0,0,0,0,0,0,0,0,0,0,0,0,0],"sum_hessian":[5.85E2,1.2E1,5.73E2,1E1,2E0,3.61E2,2.12E2,9E0,1E0,3.08E2,5.3E1,8.2E1,1.3E2],"tree_param":{"num_deleted":"0","num_feature":"22","num_nodes":"13","size_leaf_vector":"1"}},{"base_weights":[-4.7695433E-4,-1.2275208E0,2.731407E-2,-2.2985601E0,4.0511832E-1,1.1932398E0,-8.255914E-3,-8.053513E-2,-3.5904312E-1,9.478821E-2,-1.1543503E-1,2.3865929E-1,-1.3923398E-1,-1.10794775E-1,3.4684208E-3],"categories":[],"categories_nodes":[],"categories_segments":[],"categories_sizes":[],"default_left":[0,0,0,0,0,0,0,0,0,0,0,0,0,0,0],"id":86,"left_children":[1,3,5,7,9,11,13,-1,-1,-1,-1,-1,-1,-1,-1],"loss_changes":[2.0016602E1,2.3663258E1,2.3814754E1,1.254071E1,6.172726E0,5.5776608E1,2.6387691E1,0E0,0E0,0E0,0E0,0E0,0E0,0E0,0E0],"parents":[2147483647,0,0,1,1,2,2,3,3,4,4,5,5,6,6],"right_children":[2,4,6,8,10,12,14,-1,-1,-1,-1,-1,-1,-1,-1],"split_conditions":[1.0165755E3,7.785171E1,1.042072E3,4.18184E1,1E0,7.791203E1,7.3375374E1,-8.053513E-2,-3.5904312E-1,9.478821E-2,-1.1543503E-1,2.3865929E-1,-1.3923398E-1,-1.10794775E-1,3.4684208E-3],"split_indices":[11,21,11,10,8,18,21,0,0,0,0,0,0,0,0],"split_type":[0,0,0,0,0,0,0,0,0,0,0,0,0,0,0],"sum_hessian":[5.85E2,1.2E1,5.73E2,7E0,5E0,1.6E1,5.57E2,4E0,3E0,4E0,1E0,1.1E1,5E0,2E1,5.37E2],"tree_param":{"num_deleted":"0","num_feature":"22","num_nodes":"15","size_leaf_vector":"1"}},{"base_weights":[-1.2307997E-3,1.8972995E-2,-1.6750838E0,-2.6814539E-2,9.95631E-1,-3.3220503E-1,3.906536E-1,6.4747394E-3,-6.835117E-2,3.2193895E-2,3.76075E-1,-5.269521E-2,1.5717354E-1],"categories":[],"categories_nodes":[],"categories_segments":[],"categories_sizes":[],"default_left":[0,0,0,0,0,0,0,0,0,0,0,0,0],"id":87,"left_children":[1,3,5,7,9,-1,11,-1,-1,-1,-1,-1,-1],"loss_changes":[1.9849237E1,2.5963577E1,2.5113167E1,3.3415554E1,4.7223076E1,0E0,5.1632986E0,0E0,0E0,0E0,0E0,0E0,0E0],"parents":[2147483647,0,0,1,1,2,2,3,3,4,4,6,6],"right_children":[2,4,6,8,10,-1,12,-1,-1,-1,-1,-1,-1],"split_conditions":[2.9565863E1,2.8049398E1,7.536944E1,8.658972E1,2E1,-3.3220503E-1,2.3038633E1,6.4747394E-3,-6.835117E-2,3.2193895E-2,3.76075E-1,-5.269521E-2,1.5717354E-1],"split_indices":[13,13,18,19,14,0,9,0,0,0,0,0,0],"split_type":[0,0,0,0,0,0,0,0,0,0,0,0,0],"sum_hessian":[5.85E2,5.79E2,6E0,5.54E2,2.5E1,3E0,3E0,4.87E2,6.7E1,2.1E1,4E0,2E0,1E0],"tree_param":{"num_deleted":"0","num_feature":"22","num_nodes":"13","size_leaf_vector":"1"}},{"base_weights":[-9.073186E-4,1.600145E-2,-1.9689064E0,-8.940538E-2,3.4021825E-1,-2.645547E-1,3.6882784E-2,5.998723E-3,-1.055144E-1,-1.4773457E-1,5.647558E-2],"categories":[],"categories_nodes":[],"categories_segments":[],"categories_sizes":[],"default_left":[0,0,0,0,0,0,0,0,0,0,0],"id":88,"left_children":[1,3,5,7,9,-1,-1,-1,-1,-1,-1],"loss_changes":[1.9531498E1,1.9920073E1,8.884781E0,6.354395E1,5.919426E1,0E0,0E0,0E0,0E0,0E0,0E0],"parents":[2147483647,0,0,1,1,2,2,3,3,4,4],"right_children":[2,4,6,8,10,-1,-1,-1,-1,-1,-1],"split_conditions":[9.540296E1,1.7482362E3,1E0,1.6660437E3,3E0,-2.645547E-1,3.6882784E-2,5.998723E-3,-1.055144E-1,-1.4773457E-1,5.647558E-2],"split_indices":[18,11,